2-17-3

4.21075357476874501
-1.04733420651594389
0.82781543629042231
-2.39979044165846389
7.24449690612193731
4.10890647475498927
-1.14181721517888390
-2.55988926942101935
0.37420225902112608
0.21653026069598577
-2.34871794076212614
-1.29425545179589174
2.89060396423207777
4.64579958780017854
1.45251183611634360
-0.19507856562514675
-0.44120206560683345
4.25415704934545680
-1.11498280017017115
-3.44606698730491923
-0.42447459061331005
-3.35611112289359781
4.14230084450344549
-1.71305488530251449
-0.29657354105676670
0.46905813116800094
1.11074638181641672
5.50300766029138622
3.50914502808442919
2.82791937416344608
4.65632260942819265
0.00366046162910683
2.00889070416855642
0.26447997199693518

-1.89892991815343204
2.94055475697680446
5.47380659420976290
-5.01459576076150526
-2.58163615416715952
0.19414071026464078
-4.97724597743439023
-3.27701977300806657
1.03354641163033611
-4.64972907986249240
-4.01229482032217710
-0.44489167245782674
4.25510939234196606
-1.26584630381773278
-9.40766342061346528
-1.62011083512546605
2.73845497933512405
5.21734550384976803
-3.06629372915371023
-2.74814841074403393
-1.05313880471273591
-5.37932118999629250
-3.94334384965919371
-0.69114015702377707
-0.08303007650918190
-0.38016006464063240
-1.87081175955641221
1.27830824975554314
-0.14962847393096265
-1.87995454359306979
2.76530197390152477
-0.85140871338461266
-5.40122468670698996
1.41263164680627518
-0.44369327524601715
-3.10236713834031796
0.43977309243261331
2.30056294512221582
2.45141523460819899
-2.26869323976976611
2.59964857482556067
7.19551379761979160
1.46714128945520605
0.65643085969812798
-2.18881700502064147
1.68243911623381748
1.15999968705649215
-2.12074341290899770
-1.06581286600368608
-1.41787002548207797
-1.83565592599270744
