2-10-12-3

3.37186945858849274
-0.06284929854542014
-1.53191207922131989
-1.81924253568188843
-2.81958199046303459
1.01950873879777104
0.37050043652674147
1.01555301322786895
-2.74240105860764372
1.00996730026246895
3.26235270411612399
2.50756230945863656
-1.78838187472365751
-1.40478859677911139
0.07164127017093667
1.42736687804214379
1.23995898901512724
-3.60041012193304821
0.45518776085114437
1.53949312169926467

2.39856715827487221
-2.51443212081907630
1.66429432261274757
-1.52705937117840684
0.21636830738673882
0.49355489642498390
0.60036448065141701
-3.09327144208483729
-0.97584625833338845
1.53495643638131729
1.39958806701406235
-0.20066198324220438
0.34806433590276165
-0.97687663257471136
-1.18526006740664980
1.04174757786352878
0.08051738702200191
1.21859976161312211
1.65406097315521761
-2.03708779364512305
0.83693702676429527
-1.95350986923710068
1.07312210141687903
0.51594227180540619
-3.16776288129346995
2.85392434635848113
-0.88257695342529796
1.23392872291373168
-1.76806941949058705
0.09982924132518495
-1.47325084934687278
3.31305410645966214
-2.02888314274769455
3.81102366534781556
1.04375323684406029
0.43256943311012752
-2.35765818927163728
2.23090920139839177
0.58937730189850068
1.25051998840108447
-1.28400091820307694
0.60341731495574735
-1.87856530044448533
2.25321822076799227
-1.29042029857451634
2.21384295412275112
-0.02533498568019984
0.24985456341872495
-1.09259948123713313
1.85037117004179197
-1.29312338572363439
0.21330908929198020
-1.24230655789539246
-0.23784914543312846
-2.92222783683801524
2.40260645897591152
-2.52625697331669796
2.95543989678844898
0.15539947451352756
-0.68682484797313792
1.13789305457732626
-1.47779224390294606
-0.44464023169811379
-0.97386430711359939
1.23259948177783696
-1.26447034341284192
0.95489705393928159
0.54327360949531800
0.85858731031215108
-0.43112239274934494
0.80973078377623497
-0.75886272704668289
-1.39927804687122492
-0.29575571430008757
0.24335010555342501
-0.51660395602296560
0.39908759404071970
0.00111962497286257
-1.38697621900100354
-0.05834130081843109
1.70296522444808507
-1.30676313736981253
0.01605094047855889
-0.71152975306394373
0.09445925372171313
0.81709670375185217
-0.01517340783168028
1.34749289927581839
-0.58080589264326654
0.27473587887528345
-2.64595963574358928
0.83155177708687877
-2.31590681147804922
3.78977861415466410
-1.10215561414964291
-0.91269465509664283
-0.25051197109491719
0.05421357128146120
-0.38915074670204874
0.09077313047192341
0.95729900085227582
0.68461725193537271
-2.14339953879981948
0.90718673608793421
-2.66860882575395841
4.41897540994908677
0.23499857824493153
-1.26123281019286737
1.33088239262180252
0.53498951985899390
0.89762678928529382
-0.49153120867263278
-0.59411918834547073
-1.21795924578492043
0.41444065440854766
-1.02956569032031631
-0.08414978473924833
-1.60719144237791789
0.15942413231990918
0.07790645095334291

1.08115943823656413
2.84662727258247594
2.73213379637803566
-1.54602960211187002
-2.15550438677796175
-4.20386132963610226
0.22896163290197616
1.30228998009369157
0.31203209015964700
-2.15880455567430829
-1.32419652770449892
-2.09893750924438560
1.36173207960291287
1.49275563636918607
-0.24736762828085465
-0.95684243206196118
0.19533313225444252
-0.35245231731999699
3.23276128954764674
3.69463761662042156
-2.91037637730713117
-3.35220233612064478
-3.49627287467824299
-5.20982173648580460
1.27698833551337976
0.80310174819413460
-4.86444245976716072
-6.26084917844555022
-1.64021328282414092
5.68752574538134592
-0.54078120949689756
1.60494869914078930
-0.75288041919828119
0.84550558215454719
0.63075835623119292
-0.15238154611311805
