2-5-100-3

-2.19922056347142725
-0.64002444005873860
4.60282393773277310
1.93338546761964580
-3.69425543661506772
-1.83357411313673202
0.51402526795276260
-1.90072288972098047
-4.78169114917267368
-3.89891398246074106

0.20504555955544701
0.55063744114219526
0.29162881767264187
0.96951295668836734
1.14146523199948424
-0.73888745544241130
0.69940542789109050
-0.12938555848552435
-1.32354315768893360
-1.42916454030832285
-1.57822992320910815
0.46825046443233670
0.35559424853042415
-0.14364453818618905
0.08404091872455287
-0.07921164884134463
1.16250648412125179
0.55062132218696602
-0.30289128187191339
-0.15808180346492123
-0.77986346805751217
-0.18422937190287009
-0.63814375934606438
0.57511621031673676
1.01064177468747962
-1.22992856900899117
1.18486338886198972
1.21906217661778760
0.68288619973300646
0.35789186459519445
-0.73186845118541066
-0.74710539063993564
1.20506542956597706
-0.81159382411459857
-0.72580482016601111
-0.90580580344623574
-0.80680884297310895
-0.69398509388059992
0.54024149904304042
1.36168186996251550
-0.01997309697897292
-0.04941437282120290
0.63146959380618983
-0.13967942652415943
1.07833283152613113
0.89367149217316233
-0.86227030621785106
-1.37572858196959391
0.07874503022302146
-1.16909181131779327
0.04010475169566532
-0.24703086614186553
1.47640320849592088
-1.37103085026234939
1.71265342971649503
-1.19988739122083632
0.51688322085464911
1.46467047079338997
-0.38977377510426170
0.15652512897373719
0.27229817365786418
1.15914480482586280
0.97092951545600870
0.75837699053969709
1.47174739302506130
-0.55820257728111533
0.83240721297122799
1.67500995225404492
0.94424950237502614
-0.06426220802913034
-1.38663301606580736
-1.18834232015738883
0.89840666649814249
0.66032596766167484
1.38075226600579937
-1.26586140582842210
-0.95290473600907011
-0.19324897313108641
-0.39142591197586085
1.26859298396247278
1.21389351625674324
-0.07666889343849764
-1.09014417946647768
-0.95598956439300375
-0.75417240574997613
-0.32438588653406070
0.15664798299344898
0.67636657044549597
1.49013688105011677
1.31839930627043178
1.30263190741872448
0.55987759654026681
-1.37793631531148342
-0.83546636957135645
-1.42970232599975944
-0.99194853753486012
-0.40906939313458129
-0.81911038885866960
-0.74841260135840992
-0.62848154212508400
0.29769696563409198
0.54129224918157626
-0.13000574723568004
-1.47708413576946174
-1.20397361837786709
0.86856779159254960
-1.24805789435370329
-0.55049294065906951
0.66373856976518630
-0.27963659065656971
-0.23554440201491417
-1.24823280587144381
1.01786637737307184
1.51668651994428205
-0.01677087423384686
1.51617217667950688
0.16042237633591785
1.17273998052101147
-0.27656568329566189
-0.30688792229465633
-1.13526058291053755
0.43114357318989271
-0.06417241598208707
-1.06584076753276125
-1.08573636273560248
-0.15100760264423507
1.11294327691930217
-0.09727908263808403
1.47693660785281056
-0.31209460412509055
-1.10443591653391349
-0.42439339025261286
0.26098626223456400
1.42947207714526581
-1.42216678612071967
0.74687206329010303
1.15579819301322639
0.78242203123110921
0.87633543985862372
0.52815143002969933
-1.49146681852462182
0.57809412667064697
1.27053184491982285
0.86755819324883399
0.21831650269167563
1.01469337478836263
0.45928728351172249
-0.92136988855144619
0.36904190783569057
-0.28724530258414815
-0.91321909655134292
-0.42007865529016158
-1.28787560211842411
-0.49515642692272005
-0.45628608779371832
-1.27310369204791396
0.53451937603028865
1.36375789397715419
-1.14778271478112326
-0.54203399799070884
-0.82161850917297319
-1.10677379317819646
0.54291849922144109
-0.87865442465436516
0.46331940438159358
-0.69673317275115809
-1.20893062928709227
0.55363509824554169
-0.07687755278267820
1.13632722216040327
-1.14774210439118129
1.11417524027668735
0.84080075336136950
0.16894375304750048
0.03641106100855960
-0.87076578169123930
-0.82917996858337772
0.23903998463663537
0.37063132978006180
0.84337582900044383
-0.69633052503414850
-0.68429873036852951
-1.37109232130703829
0.97705956232369573
-0.49882186932350370
-0.65643000694751008
1.52004340436930230
-1.19035914117578345
0.49056651332269824
-1.52340825770485422
1.37550475974135233
1.45639340481785462
-0.58007558263476766
1.16513707608565964
-1.17300961578049145
0.98546969873390367
-0.75016181414864114
1.38578163411548427
1.06113673485651616
-1.34525430273684510
-0.90797611061853911
0.53230131208472731
-1.18432190059443632
0.85812653872187206
-1.35010162144450652
1.16580410121128031
1.17579000152440405
0.86345414561050982
-0.43415153280033580
-0.87664242714329410
0.78398589120019213
1.55910781281643240
-0.28937486581864591
0.01245465692922643
-0.89348821054092353
-1.60766523516347992
-0.47653646217157886
0.92434756150253183
0.99264329956695685
-0.89910814286358232
1.53528052043996377
-1.42917933581437939
1.17018969495900738
-1.35935874684443925
0.47867888555415433
-1.47944826328727341
-1.15750303713756875
0.17174420784455394
1.23286309993480625
-0.31640359226068082
0.01140098254658587
1.43570464156033650
0.64051615976312226
-0.84552207518983646
0.36906066838629248
-1.44088934482729858
0.90468009346837164
-0.63953016687264574
-0.03296648489118034
0.74504946269236971
1.80020552742750706
-0.17308554461920900
-1.25145553979536306
-0.74816414400269937
-0.74814906197034670
0.85017997048315397
0.39671115303750792
-1.01020406186575840
0.21886025343716889
0.82082904878402296
1.60209896442573596
-0.15433954231790228
-0.96421027713646701
-0.82508655812022469
0.22777385869573907
0.37745327586776356
1.08510855767654912
1.35693525545323102
1.07715183640034806
-0.70695746620420497
-1.30065010306099715
0.02459838071537336
-0.77248637096291395
-0.33016891613206423
-1.18339400963761676
-1.63536184326034073
-0.91076371814779500
-1.91640133064908724
1.04188656910648092
0.45014702825067016
-1.15477584466654060
-0.36704403361798893
-0.19202428012722347
1.51050140496543084
-1.06272645810970334
0.03580406385900235
1.13489817957436401
-0.49904850603459128
-1.31257146570871197
0.58712869443208526
-0.28783427724143235
-0.50812717769975868
0.87158055315257077
-1.24099682927035637
-0.22915519973779166
0.35373584045383216
0.65057030601051391
0.21279687027719088
-1.12035242188176243
0.57883073573248400
-0.18359437000725748
-0.29251999705523102
1.05916216901795002
-0.35042326284905395
0.06829928568058197
0.63502025659260797
0.95303244600303405
0.64550910796237104
-1.52054500852796171
0.62953918663764574
0.24286597951703831
1.20124477627818504
0.07116955837933978
1.14399136370072396
0.63902040761168555
-1.03927668181406352
0.35582785578115311
-0.94386655926852892
-1.48687761125771623
0.82996285520567192
-1.53368572074223763
-1.52281911258594604
-1.46245123476423378
-1.65591615151564797
1.09044168089023130
1.61730204972276037
-1.40793278560105217
0.48614875825685205
-0.35100274887439514
1.05826085502136058
1.02338756463964842
1.37881044003428110
-2.20301871062119403
1.20063587649530534
-0.93224216816939054
-0.78606653178718255
2.21794929668733776
-0.61749706016677719
-1.24294495871996213
-0.67865670954215829
1.40971387238740786
-0.89913572181734902
-0.10564364165889335
-1.53385698364927747
-0.71220882831061827
-0.98521117748705367
-0.52911066812288876
-1.17302626576683711
1.36163624398359717
-1.49946277576460396
0.78303317502673508
-1.21285181289111010
0.29417215739158514
1.36068222711812936
1.45186209042520464
-0.46773779293336959
-0.89316288210887618
-0.97172161756040776
-0.96389417473301497
0.60880091367622269
0.70115934505200561
0.01777719755627338
-0.74817912047511426
0.17738128435941505
-1.39012530641373755
-1.19324988761141237
0.72826919445237637
-0.43306941214853878
-1.08449526878707125
1.91713226619144872
-1.25871372806548409
-0.33462763613773711
-1.16189620088714296
-1.25755488242879188
-0.40484546466898436
-0.70629394848913807
1.80181959083674470
-0.87925018705549762
-0.78310321364445545
1.27871703619418131
-0.89023739154640802
0.23036289943964139
-0.99528725766147652
0.39840205837193554
-0.60013723895745263
-0.92340011682434342
-1.61334093382118882
-0.83646668170731253
0.44999401167897685
0.05930536406842705
1.30844138325811588
0.59459026877691012
0.00800456379930561
1.50472774872913440
-0.30363477125704624
1.44470937518947062
0.89412447152920271
-0.29464649020826134
1.53176633724191102
1.30602165217560739
0.76711816709611980
-0.97945811033853769
-1.12410344869321488
-0.17470894342003401
1.14443993466705707
-1.23707989684683173
-1.55146148398489259
0.32961829222630268
-0.67194822918039232
-0.71765944690433048
-0.51109755258732359
-0.15451180761785238
1.35026187678706111
0.97061740789750017
2.41663594706398799
-1.33180619494244179
1.29918247653290764
-1.56678004871075549
-1.41069080503375566
-0.16649248075417031
-0.13410849457015286
1.50591079986516196
1.31155581228110241
-0.07378385583652670
-1.40724709923905356
-2.13692572055662700
-0.07633659026489664
0.97184127453726499
0.53346864109444814
0.68608858121045213
1.55488580030088452
-0.10991307208611681
0.62719147140202525
0.76141919284972637
2.41762904790692890
-1.08977247788408982
1.34757433613106770
0.61422388599937261
-1.39463493899014024
1.31410877407783366
-0.82493957149638042
0.23520065031650569
0.46528467470290602
0.83325005910945371
-1.14182330938323351
-0.71674691673368307
-2.43297209406876691
0.98629833425403379
-0.92635357884476532
-0.06586948508991386
0.93801530095499708
-0.51891084048211511
1.29207391346700917
-0.43064233811241870
1.45388870222786282
-0.47801926385566756
-1.77644729995488460
0.04367807715953789
0.19102760402821339
-1.98405063233097612
0.45511224944810280
-0.22971121652582241
0.83856291718519549
1.07987565645461658
1.31523605840415314
-1.01073701205250277
1.08485919152880617
-1.14718322212093726
1.87131844464796382
0.30395556342928609
-1.50972166103300731
1.31790043962509373
-0.07798796812324811
-1.73769113036690359
1.50609540629356009
-1.06873270943583254
0.38839874551997355
-0.12659236048433636
-1.11824225829071167
1.16334505564676083
0.73055005229470471
-0.15644290835151245
0.27075258359240151
0.98638669594586903
2.14854946062243579
0.68316176523597760
-0.16744963441909921
-0.19213549740565994
-1.30233389963866864
0.75558823759721405
-1.04489678926441854
0.55881812824865995
-0.35735883537909136
1.59623174597028550
-1.46146349152647570
-0.28350589847686364
0.18784480647778729
0.17591373016198827
-0.99519980441667466
-0.45931802120427123
1.14265921463621889
0.21045355703695087
-0.51745846566463305
0.01254989351497991
-0.60255770477088788
-0.12261297917498690
-1.37398769556999611
-1.23924958672997620
-1.32388793980542463
-1.06032861350466656

1.09127651410043591
-0.47087759737647417
1.21987676432906755
1.25842105958738326
-1.57918576517562848
-0.11147150521605852
-0.97403438784752094
-0.28110122238053969
-0.37229033789238641
-1.21939892130012639
-1.47323232703474249
-0.75363603832797854
-0.60572636840328542
-2.05125220824896681
-1.54614267725870969
1.86396129422699675
0.64215144899130072
0.37593642742738670
1.08243466033157576
0.19312423928727468
-0.90106138041310180
0.21011012812185600
0.52460549773567067
0.71225190322811027
1.00475139456437557
1.29528853296486379
-0.91961325655061121
-1.05627305634311730
0.43653830513363079
1.37027352434278571
0.39830016689420533
0.42411155416860541
-0.85567376667188844
1.37619081053240500
-0.46294616285587886
-1.88662599462463421
1.15560297888035235
-0.82841697960760519
-1.38094796180293211
-0.14367433370101426
1.12736878378855532
-1.17853798990966174
-1.67634776051025880
1.14493074137528184
2.02075604335413850
-1.83363355045044196
1.45316175775795431
2.36409102834438656
0.32697446675891917
0.12197097253094680
-0.61471362132917062
0.23624594082542411
0.66353293199665286
-0.76083758543605495
-0.99128027665726781
1.32875822442093017
-0.62868663433443683
-0.43723160717406029
0.77272284481893327
0.05087566588255531
0.81622372331575499
-0.75476790442114106
-1.75945739279670721
-1.82736369655003061
-0.43076773125608647
1.44742606989773637
1.62571142660646695
1.27236997050787926
-1.93892172734790247
-1.50874749160304145
-1.07632717392792010
-0.53680148709142372
-1.43962377650249307
-2.08796762401297009
-2.17238278005975882
0.52183220080180670
0.52346397050892135
0.90745160743749054
-2.19370436679081182
0.65540351700833743
1.86953765322606413
-0.38675176340669093
0.21802894233330899
-0.35164242943365898
-0.81995950710506704
1.47869181042998910
0.50120988006939238
-1.18346045507688191
0.36738881275879981
-0.62329444814717516
-1.47364828485225452
0.77885211852285163
0.67795971728071391
0.76784331613396239
0.76580100207312063
-0.03454292549302619
-0.49574120986931747
-0.20390310707219184
-0.18859141194282147
0.64969406018519071
1.33255456716483112
-0.81733979946553270
1.66572694240035601
0.04971973774737658
0.38381431466959398
0.62391078621782392
-0.82000605814435901
1.79174640564605858
1.37433008819896729
1.72122223489435533
1.79025042420488578
0.46891054113521380
-0.39472499328957000
-0.03563646646247831
-0.16473965782093272
0.30114649198024646
1.39997531999134051
1.48885325515269051
-1.42126757611742405
0.26708411235269891
0.47888946204463051
0.73340072368074127
-1.47971908144309960
0.64840313242773118
-0.52483219410604542
0.46620967143159492
-1.79015136228952709
-1.43235808220264449
0.12393198587515614
-1.32839172506462244
0.96365521472313620
1.87145999589500445
-2.18754049549219154
0.44923738024664256
0.04891728513755182
1.09961685263101128
0.28905405128542688
0.13744511477318483
0.70960545888186299
1.67677654559373757
0.27447877022060502
0.18015474722332989
-1.02111613201753859
0.47811812088946654
1.17776469534146111
1.27277610359913318
-0.02913189448512146
0.98793283978331936
0.85466264851007923
1.85569350483632767
0.82074049770997282
-0.59143819708583434
-0.45002296932606672
-1.17751562102196017
0.77474903310475252
-0.52488117140493340
-1.49666767996053229
0.45242992978935453
-0.88861568719225070
0.43017080623655035
-0.03682328346580852
0.51220971803370718
-1.11163147965368458
-0.57326330475606924
-1.88221335797486322
0.93688985593557472
0.95226998188836331
-0.87794467019440692
0.94947841737297112
0.61662403730407367
-0.58529486785356366
-1.11929899293683155
0.39045804123329636
-0.47041147408285178
-0.19611254296583247
0.23519433255567099
-2.31019511481577888
-1.94184709756736562
-0.64947148350131390
1.23766506006165944
0.97373540319899243
1.19310468932143388
0.92136610885373171
0.27839498005242141
-1.18330751041953741
-1.76107763780697391
-0.46909269667443054
-1.10446731360189210
0.25472614473500660
0.63749544519545109
1.58428282475245497
1.50627854670126515
-1.60670428917359542
-1.24960498646677065
-1.04155777400714333
0.39323639375289998
0.17410962470398653
1.39891553971037541
0.49508159755274844
-1.72448158423425757
1.49356994228535300
-1.14009961177861441
-1.30296995749205169
0.97257093114698001
-1.05168773744199928
1.17243548146210252
-0.83744724473567800
0.60409807952671246
-1.61089224699556421
0.03501818462642396
1.01182889436074719
-0.01776107684183910
-0.27231880783990292
0.88348922998496504
0.50361755458982926
0.55726125966920226
1.27932433397978373
-0.46043121130991227
-0.07491295395438390
0.93373408639586641
-0.36287756831812440
-1.27931569831925462
-1.58742954690261673
-1.72771093932736930
-1.42086494498401938
-0.95253323418886104
-0.21608616936815581
0.10008226414606800
1.32626159044035896
0.19573839422496705
-1.49345253304589232
1.54316268432486092
-1.28519866892760470
1.03162335785032244
-1.31811962163709095
-0.02579996237210649
0.99277873267196481
0.85949424012710107
-0.08608236534316697
-0.61012532629955207
-0.36670451527370557
-1.48167986623996928
1.10767996902961952
0.12267515757239947
-0.59767118550061205
0.01415142896594476
0.27067244461979473
1.35661032258603398
-0.17921028936616321
-1.38723616698194818
-0.99831584434326703
0.45004230391019484
0.66428503825874985
1.08014230856995019
1.36856049895606491
-1.16424865513276377
-0.43208463667454772
0.13447205702546147
0.25279094992781026
0.49491355161617212
1.39978078966507580
0.45553503830220587
-0.02493211564196898
0.00269851205633357
-0.85606694019627738
-0.60908616038042018
1.98077698793022661
0.25185260411083227
0.07591339897477192
0.64482007033650313
-1.12487358163387619
0.28124018386305166
-0.10094438972437624
-1.45936243583925851
1.25773997103229096
-1.11759148953064913
1.87157067181428949
-0.54381544024412665
-0.79413674503513398
-1.00354373220881321
-0.72450194426390158
1.32527292147234244
-0.36744808859406353
0.21128113229927045
1.89192286453353353
-0.87127116214351219
1.45566844131528073
-0.42873327468923239
-0.01739936955905603
0.74546893278062432
-0.73282671795874821
-0.92685336320424050
1.74886840678327293
0.20333570861646807
-0.08656038418558711
-0.59802731346926707
1.56566717537086308
1.17652376717616347
1.06505931136280108
-0.17056958738839734
