2-5-10-3

1.13614592945440918
-4.68241212945927909
2.80812706953462987
0.09994512995967078
2.32462739090911041
-4.74408174467714350
0.76290582932501361
2.72235522945220332
2.75175472863670434
3.29341296570739273

-0.92125949281625008
4.27120011760853835
-2.63915124396995227
5.24020014864397332
-3.52101590551537580
2.64862119301315602
1.18212324712747852
3.01769967899828018
0.88479782412636476
-1.59796164140114061
-1.16090692443859100
5.75295912503887674
-3.29925199438760419
6.69763960477763121
-4.79425798748047516
3.63708550792813368
0.75711502183086155
3.78852556704761012
0.44070710166797650
-2.81047934206655814
-0.29201354902186455
-2.51950082952791599
-0.16829371765466092
-0.24591560250191022
1.78044473450298946
-1.58263895295829515
-0.16785094128784375
-0.27544152550343282
-0.67764373690555668
0.05689931046681537
1.42078145433572112
-1.17115567257590691
0.98415163575301146
-1.29154389717327844
0.95098709916357216
-0.70937097797722792
-1.10389579858296516
-0.40859694961672555
-0.31252232823307524
0.16687614729782027
-0.09423104324781909
-3.27452313690527941
0.45001824552585745
-0.88153987440731219
3.16480533745897841
-2.57292412693655548
0.26924012623782667
-0.97116389318728380
-1.07336079397728668
1.24160068454249584

-0.09782571465430533
2.00547765351007801
-3.50988904041039129
-3.68504299200111252
-2.68218996886350469
-7.58544495637197613
2.06682486925130249
2.19844223602429256
-4.39513044484027748
-5.41269548771328957
-1.89706375756304690
5.84205187567681428
3.35401427511491645
5.50936536494468054
3.03012693064134542
-2.19877197529181156
-2.28454106752002772
-4.53805200980706047
-1.61431608407427141
0.44351594478166961
-0.01805396217970654
-4.38096980620192245
-1.84400295633039613
1.55401908876202999
-1.58105419100634514
-0.33810781430003656
-1.37132302797351868
2.51823371164682808
3.21730822381054438
-2.48748943506529674
