2-5-100-3

-3.622507
-1.494961
0.794007
2.767413
3.066419
0.556184
3.441801
-3.884511
2.631474
-1.402927

1.522774
2.311475
1.969946
-0.983849
0.591648
-0.182458
-0.841777
-1.740234
0.034201
0.127798
-0.348432
0.888633
0.119111
-1.408160
-0.331082
0.185255
-0.486572
1.891671
-2.275930
0.110720
1.730908
-1.828020
1.782787
1.816001
-1.006430
-1.309157
0.415082
1.625329
-0.447181
-1.692258
-1.145726
0.796765
-0.345340
-0.839411
0.088376
0.963193
-0.518087
0.971777
0.971082
1.161049
-0.092267
-1.461995
0.604911
1.381597
-0.624483
0.155842
-0.925590
-1.018311
-1.048530
-2.059520
-1.111358
-1.483490
1.139241
-0.187251
1.427715
-1.419220
-2.269848
-0.433583
1.273939
-0.025395
-1.356921
-1.258125
-0.193153
-1.301463
-0.380624
1.545998
1.791997
0.689366
0.835844
-0.953640
1.718003
-1.366289
0.324296
0.899505
1.185571
1.171047
0.661165
1.370640
-1.071347
1.772364
-1.074732
-0.286937
-0.205692
-1.139056
0.599643
-0.725593
-1.420682
0.149708
-0.614354
-1.066517
-0.300181
-0.383842
-0.842313
-1.046626
-1.812942
-1.484021
-1.105838
1.385220
1.720473
1.039845
-0.228432
-0.736140
0.206891
-1.188795
-1.319079
0.400461
1.348023
-1.375367
0.545727
1.179299
1.372759
-1.715296
0.553506
0.953058
0.496402
1.161073
1.348214
-0.968413
-0.445550
0.657852
0.275129
0.496907
-0.846307
0.257218
1.248926
-0.899478
-1.524605
-0.446382
0.033444
-2.173606
-1.065244
1.503981
0.689185
-0.877920
-1.533092
-0.548432
-0.392410
1.736029
1.277805
-1.267045
1.392144
0.849462
1.000504
-1.145554
1.422680
0.727568
0.631228
-0.247546
0.198052
-2.620102
-1.454769
-0.364874
0.688382
-0.143157
-0.502159
0.088118
-1.207473
0.407212
-0.394907
-1.218855
0.974320
-0.980380
0.153746
-0.167233
0.780514
0.010152
-0.976476
1.172785
-0.715219
0.485961
0.946412
1.387088
0.696890
-1.341747
0.328155
1.052018
0.963087
-1.449149
1.289374
-0.439259
-0.786090
1.463021
-0.209942
0.122747
-0.885620
-0.140796
0.391524
-0.984333
0.700597
-0.019706
-1.139820
1.170762
0.472041
-0.433159
0.613386
-1.644058
1.268649
-1.155897
-0.238282
-1.366693
0.228991
2.682562
1.453899
-1.131402
-0.234841
0.895278
0.751148
-0.886028
0.176420
-1.558706
-1.055579
0.744938
-1.905527
-1.293199
-0.652401
0.617893
-1.593194
-0.398025
-0.633773
1.424670
-0.619523
-0.197427
-0.720806
2.029366
-0.546769
-0.691639
0.949012
-1.287054
-1.919075
1.286913
1.650024
-0.019116
0.144568
1.836032
-1.437241
1.006372
0.402111
0.630948
1.187843
1.254973
-0.602582
-2.297201
1.192398
0.479583
-1.184369
0.184772
-0.304257
-1.491810
1.512550
1.096012
0.488247
-0.998054
0.383339
-1.043943
-0.570142
-0.675393
0.873294
-0.563767
1.252839
-0.351760
-0.624595
-0.327588
-0.354288
1.634091
0.955091
-0.791827
1.713485
-0.635918
-0.538013
0.088126
0.574602
-1.962789
0.478928
-0.040353
0.058050
-1.270844
1.833767
0.981187
0.391604
-1.651021
0.224339
0.587922
-0.942994
0.003482
-1.108158
-0.158930
-0.692160
1.166438
1.507453
0.725664
0.872712
-0.948928
-1.306940
-1.045706
0.759575
-0.539255
0.689462
-1.561122
-0.860672
2.380479
-0.139161
-0.972235
-0.847480
-1.002963
-0.459443
-0.836115
-1.686387
1.771683
-0.771705
0.563136
0.909772
-0.840323
-0.201848
1.737692
-1.005885
0.209148
0.053979
-1.514921
1.337561
0.879016
-0.914811
1.470736
-0.565084
-1.089837
0.645962
0.292622
-0.012305
0.417971
1.045166
-0.935370
-0.107040
1.433351
-0.906616
0.520385
-0.915279
-0.485495
0.087746
-1.023867
-0.235186
0.568606
-0.405948
-0.002981
-0.770558
0.388021
-1.347005
-1.982090
-1.043778
-1.374931
-1.126973
0.501465
1.118374
0.637511
-0.721447
0.466403
-0.039140
0.779723
0.024202
-0.363575
-1.315234
0.102585
-1.259522
1.106232
1.511654
0.778862
0.487294
1.129582
-0.763567
-0.464319
-1.312747
-0.193768
-0.219294
1.435356
-1.365370
-1.544207
0.125702
0.078517
-0.679116
-0.214766
0.430365
-0.774804
0.034836
-1.799186
1.309652
0.775250
-1.350254
-1.158485
1.791836
0.972476
-1.308010
-0.949541
-0.514485
0.765153
-0.530287
1.040262
-0.029237
-0.273273
-0.153543
1.277790
0.616975
-0.697094
-0.363375
-0.751347
-0.943230
-0.717236
1.025431
-1.298039
-0.410843
1.146346
0.093586
1.069883
-0.851827
1.321034
0.827884
-1.070673
-0.584154
-1.684747
-1.397768
1.100695
1.078906
1.293321
0.732708
-0.376105
0.241816
-1.042588
0.868217
0.636039
0.061373
-0.767219
0.804017
1.526223
-0.223994
-0.658715
-0.672147
-0.293242
-1.318109
-0.461725
1.431498
0.449682
1.227384
-0.829109
-0.622709
1.270489
-0.303811
-0.985805
-0.854017
0.772265
-0.258459
-1.522547
0.488400
0.508871
-0.336020
1.067631
-0.507590
1.263416
-0.168460
-0.338528
0.861177
-1.113507
-0.154830
-0.507480
1.636878
1.186888
-0.615858
-0.052122
0.591944
1.097374
0.867218
-0.094993
0.452476
1.143926
-0.243431
-1.176959
-0.957342
-0.236678
1.021730
0.813460
0.396429
-0.073973
0.711635
-1.629785
-0.671879
-0.297624
0.826310
-0.672558
1.297590
0.713603
-1.422165
0.100408
0.268292
1.118928
1.108817
1.091016
0.996714
1.125673
0.408313
0.833604
-0.474129
1.153005
0.365991
-0.049181

-1.428752
-0.327550
-1.502229
-2.857883
-2.392843
1.062535
-2.353889
-0.649360
-0.233794
1.276917
0.903536
-0.123920
-1.008680
-0.405949
0.119790
-0.564971
-1.376507
-1.223459
-0.653718
-1.666664
-0.635015
1.996595
1.964983
0.408927
0.911628
-0.389518
-1.238540
-0.908628
1.766845
-1.109079
0.483088
0.772188
-0.897561
-1.506580
-0.159471
1.145516
1.120053
0.838842
-0.854988
0.378527
2.232785
0.484354
0.607053
1.023523
-1.580357
-0.919712
1.022571
-1.618114
-1.261041
1.085417
-1.910842
-0.380424
-1.420281
-0.859917
1.221486
1.401379
1.501980
-0.928064
-1.333960
-0.711825
-0.325332
-1.615478
-1.418843
1.446888
2.163530
0.843761
-0.673258
-0.409956
-1.667369
-2.443330
-1.650649
0.583208
-0.479208
1.123738
-0.355320
-0.824339
-0.155938
0.974986
-2.117317
0.091782
0.512480
-1.400059
0.389998
-1.037240
1.526982
1.853974
-0.700232
-1.117574
1.068468
2.103862
-0.931879
-0.063827
0.849815
0.702370
0.164324
-0.416155
-0.721809
-1.535397
-1.538998
-1.469910
-0.423401
0.943644
1.157748
-0.702612
-1.103721
-1.515396
-1.974214
-1.294584
0.683304
-0.197135
-0.273543
0.680846
0.115942
-0.930326
0.057560
0.982310
-0.779385
-1.259260
0.299441
0.917225
-0.691520
0.687207
-0.882215
2.204114
1.553132
-0.575855
-1.387505
-0.669110
-1.671149
-1.481078
-0.455503
-0.990195
0.355476
0.390435
0.270896
0.076735
-1.933883
0.246178
0.658245
-0.409087
-0.058439
0.526553
0.993052
1.240831
0.099675
-1.955812
1.668394
-1.648677
1.413114
2.012018
-1.383037
1.506903
0.606128
1.363549
0.139639
1.558920
0.265359
-1.107672
-0.869289
1.193587
-0.165982
-1.169849
-0.785507
-0.387792
-1.622035
0.181535
0.316567
0.170459
0.759726
1.314581
2.270694
-1.013602
-0.871357
-0.203887
-0.255603
-0.464858
-0.207860
0.967749
-1.031426
1.103732
1.420883
-0.184663
0.913854
1.555633
1.527957
1.455314
1.246645
0.642389
-0.715514
0.789240
-1.077310
0.718280
-1.102977
1.234666
0.973610
0.745752
-0.599246
-0.882728
-2.055117
-0.113489
1.008370
1.072230
-1.408143
-0.451459
-0.916896
-1.119763
-0.912616
-0.005262
0.793528
0.126058
0.136232
-1.895443
0.214919
0.105067
2.640858
-1.563410
-1.415094
-1.613216
0.564318
0.740886
0.173602
-1.238536
0.166533
-0.808256
0.861880
1.061263
0.467301
-1.545217
-1.813927
0.112462
1.144759
-1.418542
-0.558909
1.459221
-0.527867
1.072499
-0.055455
-2.036725
1.068709
0.231897
0.503824
0.485746
-0.566228
0.657828
-1.944925
-1.805603
0.549844
1.337197
0.476254
0.205600
0.191421
0.756901
1.123500
-1.824566
0.779836
0.045269
-0.889674
1.411752
-0.635075
1.531916
0.807124
0.588872
-0.563636
-0.769755
0.172981
-1.840726
-1.023709
0.090578
-1.572296
1.202220
-0.343426
-0.391806
1.268132
0.301584
0.229095
-0.754520
1.230977
-0.645584
0.440442
1.769390
1.531189
-0.488857
0.848996
0.810137
0.439324
-1.118267
0.604352
0.830998
-0.524346
0.567403
0.581695
0.045342
1.023653
-1.374261
-1.561607
0.277312
-1.702044
-2.001203
-1.569267
1.414544
