2-5-10-3

-0.36906224348251937
3.66681172798610788
1.92002572302368324
4.69667277989538601
5.69734126033728838
-3.89516041768276722
2.61456846291950473
1.49725918911731104
3.62958032806775499
-1.97236178487602021

-11.79670320636440373
-8.89263973455886259
2.23572975575780442
1.63811575915575558
2.41142264329774747
-7.13799485202220385
-2.94614020721590242
1.88467327949084895
2.08919741622329891
-1.55731675755945309
-1.28986721158234352
1.61939969874284473
2.36950692501232174
1.59931286500014669
2.37438036026279287
1.38923107288150871
0.19138807906520106
1.07853924996179029
1.89987093259631545
0.69883915046958023
1.48850056889615034
0.95806268347549639
1.46547771331806276
1.34318291285017866
2.04164874925353246
0.31576192680286846
-0.27498078417465083
1.21056091305698499
2.21038318074542062
0.40616152655216436
-3.13187824298830053
3.80626819979394115
2.17246098977882784
1.43331248308572734
1.19812285028739685
1.83381583586906127
-0.24424763692207732
2.14876598714516431
2.42114692696928202
1.30278089201984737
5.45864621105338710
0.02214786491997265
2.05670163338418277
1.00962728166802829
1.19202272162328127
1.59163614673221310
1.50566322413298881
2.09337415832629459
1.42500981075605027
0.08160457341809174

9.53104186916729290
3.69381312360243275
-10.86820564713994663
1.91455262079217969
5.77128804356668734
8.39324201112015622
-3.63534254141761215
-2.66090564820606934
-2.18975666896094268
-1.68308231495355098
-0.94856426432047358
-0.81003327383552270
-2.66619837190218689
-2.06016163748305114
-1.73990392517158776
4.91248755820133098
5.75092570012617710
4.36188486853199020
2.50980106163070404
3.02355485500727017
-0.76309375890702402
-2.52675682496937171
-1.62994045925303066
-1.01380721047833111
-3.13573497340378182
-2.41917971918269981
-2.26039031827844372
0.72449348054547613
2.33211910111522558
1.67120943632309804
