2-5-5-3

2.82412870670485372
1.30080001665299605
2.35701656899088974
1.69884948573069194
-3.90992508829447338
3.11210268494423437
-4.79757405000702786
2.43680536479263177
1.35689177419827267
0.14079784211159543

1.75811504405406271
0.51165513609593194
3.74818711605322141
-0.36754424505897754
1.71740960962319056
2.21184428695268354
-4.78087461985798789
-5.26040252959599730
-5.32910236285706418
2.44878398051369839
2.21396468417412162
0.93296849461538534
3.30664196851838721
0.98301494778859833
1.43067295277650453
1.23227775025947994
0.70988375215079036
1.28114645796190829
1.64121669660760583
2.47207973914950152
2.44191080862271548
-7.49669542514394127
-8.44509221609762584
-7.51712548612005715
1.81275535270812238

-4.42162917819611145
-2.40320010516180904
-2.28192371631805324
6.40709233847448711
4.68760728730721166
-5.40607103466382544
2.72547401836022729
8.60992026743949168
10.51270006673208002
6.06543059364846115
4.06810653316512827
-6.43200676804440796
-4.39828294132235431
-2.28249925062341497
-2.39350221812548858
