[2-5-5-3]

1.33169481345103868
-5.43721478841475481
3.36698803686507109
-2.61596619267416397
-1.83615389589762890
-0.20341802586408705
2.14883121128773302
3.54743286664969038
5.90947333742220504
-3.55047359863441558

-0.98330232817670005
1.02413469640493071
-0.20686106471220597
-0.16987402548499536
0.95490027632916608
4.49299766115266586
-0.74754883995337851
-4.57398337396169996
3.17455856755870380
3.34572343404359840
3.60421265323918494
1.20452412327451297
-1.03211915002084353
-3.11716024673979009
-2.12336622713842660
-5.38711495089032866
0.83207933868777995
3.48931730159638676
-2.11058215000353799
-2.55337947544719857
-3.13122249759275251
-0.91041522965555566
-2.89812181917094680
5.77831821212076413
4.18734103613941144

-4.02559791437347059
2.29157253172951325
8.16205066811251889
0.22957445881885141
4.15178368922201990
-0.84233203065320039
5.15199948223375870
3.03478288194304824
-4.69421125526512917
-4.57078033744296341
-5.41167855999772751
-4.81614952918959904
-6.42966417660359824
-3.91557887664436199
-2.41354088657437593

