[2-100-100-100-3]

-0.44796682027747681
-1.44836667382313045
-0.66853278869657384
0.87043780380066083
-1.37215128754582394
-0.53825995506858038
-0.40153432844761622
0.22794957553738943
1.11686314744247728
-0.69336424720960044
-1.27766723894440348
0.77410238942478060
-0.51700042028822690
1.31170982558380000
-1.15233540856448280
0.16940882409609770
1.39183288130035154
-0.50120308523697699
1.23756521866628288
-0.16621036734950559
1.37443638955824632
-0.29905460823824165
-1.50116907955125956
0.76971841627093229
-0.35573704106244997
1.20930737151803092
-0.46308736587343502
-0.41154148282014608
-1.34634825844907247
-0.59162972326252594
0.68464927310323287
-0.89384419897632983
-0.66514316552336439
0.56488488084175492
-1.40636901814611170
-0.72316175578032804
-0.91134704408434397
-0.07202276331894386
-1.02618842934841314
-0.74308226668163524
-1.06495904363752669
0.32505289438141877
-0.91660536044500274
0.31184731167077229
-0.62010505162174989
0.66105083651780738
-1.37569002460242018
-0.46630081608146895
1.27156895622607169
0.95334365311252911
-1.06878470066914177
0.05727234371423714
0.58941605817134923
0.09638336269317485
1.19980773895563475
-0.07008694466593415
1.47297940097383107
-1.09617330493702325
-0.52849755475090798
-0.53598580069474322
1.11815154510251280
-0.96506918025867838
0.44495987357239952
-0.54531239828124078
-1.21721187768911232
0.71197535433035009
0.92393295151328014
-0.75891403517221423
0.00842954775445674
0.89075103747570661
-1.12252392731095862
1.11632524567092029
-0.57587748292292318
-1.25369759474751707
-0.99658047413734574
0.74979440376648898
-0.24872861448572928
0.19374371396991247
0.11442870214226780
0.56311754611990850
1.64434896461301228
-0.04956835120529961
-1.31111244456983900
0.04926339004656988
-0.70764712328598900
-0.39793104472100238
0.64677130101717228
0.04552496013206632
0.66581416030740015
-0.40048056889984757
-0.69946866819013864
-1.52555724692480066
-0.30161543274304980
-1.12089546912644900
-0.37283791018599383
-1.28654402246594968
0.58768856352836563
0.79390428438211080
-0.29044545467307292
-1.04009349338587542
0.83590560552274873
-1.42574580123123007
0.33968367881339695
-1.03515996594551729
-0.55776720987779604
0.37351784876633892
1.13653505363339979
1.26485206523871740
-1.45840295417714683
0.39493354252649987
0.47891705558421344
0.08354801504998922
-0.28934122210273722
0.05286758119507559
-1.61370479169409964
0.09709424586651536
-0.82428409159879723
-1.22343112959123324
0.99391333376116253
-0.60020592047171151
0.18859586535002978
1.47984174364853938
-0.13233974637987292
-0.24141022456180983
0.28226722608235549
0.05234673387126345
-1.10126794815576101
-0.26030927136311749
-0.42109517051349760
-0.26236532643590926
1.35333974297664827
1.05426222098063249
-1.42925680980306491
1.19055276071790317
-1.33183998247689517
0.23249787151379278
0.40797693925332745
-0.56802972780971228
0.19531956572019460
0.70622080359150941
-0.70025095440978524
-1.10721497420818893
1.37346712550065542
0.16245963700642579
1.28230303503094967
-1.52466294832061089
0.92914580219612164
-0.68848770783404190
1.47828650880254120
-0.67111533948074575
-0.04887246969866869
0.44396463274071513
1.50121432971429059
-1.03827024277703872
-0.46179051994286824
1.23207408079905201
0.51672187444095707
0.29545961430905110
-0.96045212698807736
1.02174450364856773
0.07980351396924312
0.33838153651080505
-0.72000381068353991
0.93054598031887936
0.51195812629085535
0.50108446103815529
-0.27106571819015590
1.26417687774241072
-1.34312102837904468
-1.09447361104482144
0.22480093637460330
0.82436204520338885
1.17688209274100952
-0.08777024080435124
0.75109763564423748
1.45304556976284904
0.81034389974950960
-0.71451760989707280
0.98482642473262128
0.64503390763305690
0.04987348766362398
0.76081466283898658
0.29915210619698951
0.38105620291479469
0.24321786087013081
-0.10332671387709506
1.20298905545144441
-0.64562009798554276
-1.12975992001835035
0.84653909319344156
-1.41505743118937044
-1.05664582769526394
0.84675877284332013
1.56445012317277876
0.96050073704587136
0.70064091648971127
1.33215253555409019
-1.27849085757957948
0.70301318017679670
-0.22983549814560364

0.50738713034450977
-0.15879993855142555
-0.16718988539961913
0.01147315002756546
-0.59222619640886109
0.71000463970305994
1.00613450856706588
-1.09806435963466509
-0.16211558939825768
-1.28595100091190995
-1.35109771404331691
0.06698096026516923
0.87932947779285819
-0.58833508116034050
0.37163975392512927
1.16838983211217173
0.05552706090619180
0.08124552564958831
-0.55076708870611779
0.25174640221456784
-0.61343591145186649
1.20720668518805785
-0.48733868029026750
-0.35861655689963096
0.56911325400984480
-0.52245653791306113
-0.79899952247236816
-0.57191643881079368
-0.16430014031171819
0.37839014099875323
-1.15070598456893713
0.13258078739923548
-0.93609759821952654
0.25383305910557469
-1.04491044019028134
-0.96517569808771120
0.55274910927838494
1.17942785942883588
-0.26446558740390941
-1.15057606151190006
-0.27212496886503412
0.69963213168844862
-0.79151999545171015
0.55568140895143703
0.89286112882216739
0.44034304945085828
-1.40852474216189183
-1.42413376414567971
-1.00516305769016356
-0.97093258937354598
0.27666233019202924
-1.26750525070488096
-1.00555256191605125
-0.01363990050718733
-1.40831895610276936
0.11022236008000641
0.56360518944530258
0.99828262359847408
0.75123063630361508
-0.39526628274817716
-0.17872147811169514
-1.01968136337721527
-0.23609060409886165
-0.27116958343897241
0.29176051409865617
1.20872185156482459
-0.13075014438133453
-0.78873133066791801
1.27136643279897688
0.72823214474818321
1.30293672337008903
-0.07484031246732002
1.22611991262380871
1.04669913806789938
0.72787379514697415
1.45404836483044475
-1.14515051066158269
-0.55965141340906255
0.26652907716414675
1.19412946373555418
0.58551978343889333
0.68171007802641448
-0.40871695537362113
-0.43348643616241955
0.08553366396714585
-0.19954938275071177
1.40066139095590381
1.14714701432492605
0.44021269025316384
-1.20140646606424917
0.48889156465966965
1.48100754082253228
-0.20613891300281104
1.32396111370111758
-0.68847186336426436
-0.50193929588234421
0.46665492501072647
0.72405193802269219
1.27888228224180089
-0.95561938593734341
0.30064836967021913
-1.22295486105684503
-0.02015126945454151
-1.31969398444280372
-1.26657868313583277
-0.05405146322127617
-0.89835189219758993
-0.06480981724939847
0.57534746307215778
-0.95761751187539002
-0.18345157366301884
1.17125510880548789
-0.74075569410946007
0.64805176489716299
-1.33628925767704776
-1.44126512766535364
0.95463711017121611
1.37626714540604866
-0.29189527795145803
-0.62056170545365574
-0.52474169382112335
0.64726898042903369
-0.85263411205767070
-0.74168073059713246
-1.04003364210569926
-1.54027025678092100
0.44097489614390611
0.07038282711323013
-1.14685370659890951
-1.23189236756378784
-0.34835480675906960
1.42782524074408390
-0.74361276504726537
-0.17844339784064972
0.52286507911701341
-0.58900153192740912
0.12868343815558875
0.72897160742753619
0.63907462577865015
1.49128082392519401
1.05484320225610051
-0.84626131730827359
0.87728767055092527
-0.64938090241313362
0.02656568776505908
0.08283870206769117
-0.80078276062386788
-1.46654540135346290
0.80425488460541406
0.92550406949502395
-0.31260289059582819
0.91081536461738843
-1.14802899960624583
0.23133957853094519
1.15655967647788716
1.22162797129959677
-1.43591658125050547
1.07426809627229725
1.22964517236754056
-1.32532068470765751
-0.07664868187502157
1.40526916599089535
-0.35254116073122510
0.71229437131908191
-1.22985102472293106
0.25896333432835839
-0.14435865257046518
-0.88380533045124343
-1.36543340518242928
-0.48659251463210190
-1.02742048781208428
1.48501335901259868
-0.73308061265345403
0.59572092116057773
0.73513441505114963
-1.50149464817294054
-1.18560334572077286
0.52111873725591484
0.15396553037057792
-1.03373290570736631
0.64066379940399054
-1.49576689470101409
-1.41228027672239609
-0.29858620694811233
0.78843328935007939
-0.52878110115437815
0.59848328527969596
0.06638745902539397
0.44473728289630343
-1.24405373976648659
1.36673429183732176
-0.22465583554027418
0.21313490297323062
1.11102810411848663
-0.95103561683973037
-0.01779019294191287
1.08724587001583739
-0.64265861218227127
-0.25555459492621413
-0.05011902095214701
1.28660668076828877
-0.03159831204878900
-0.87765103123893207
-0.06025470775174343
-1.33148142502468714
-1.41303277474618372
-0.31847985809850493
0.40430370382474029
0.66210204847905674
0.37318130525204468
-1.10989001507549534
0.23426702301553995
-1.14685929989866842
-0.54461085463750991
-0.46713286053930925
-0.25357512811796185
0.58519446385531126
-0.73543520099152437
-0.58283586383677244
-0.58771356768758631
0.09152244235918144
0.32198494321104915
-0.92603455894304176
-0.94626763263519165
-0.24978801824744662
-0.68330046942667833
-0.02332296154969478
1.09762334237093007
-0.01274043072058426
0.94468965658987680
0.85790276993369063
-1.05558721754997431
-1.35061932770673665
0.23565863368236858
1.26066478372278956
1.39021802906100089
-0.86130745864873859
-1.39138010753398822
-1.45815443647279741
-1.48823340441582275
-0.14997952693685299
-0.40893529678778567
-0.36959871879754569
0.02403274832706372
-0.65596382573801704
0.14037558711570289
0.96427179212089975
1.34007221337288396
1.39872276054678446
0.92377558880660038
-1.19905704413821868
-1.33158315538791316
0.57630804439283678
0.03518895885266438
0.58868693815355078
-1.06325081760457874
-0.06584804555220337
0.91672756831466506
-0.50805104931378264
-0.77627542888406353
0.31984935380120844
0.71021437175338920
-1.24658731627831698
-0.70961308392464295
-1.26256342132648691
1.19106475137655132
0.43649603569138851
0.95436935211437379
-1.32314327036956469
-0.83782988865841934
-0.62758303418067507
1.23410126933289743
-0.18519832272809789
1.18702683644372553
0.17778654119357490
0.91651356496542291
-0.42378126953443862
-0.71718177453381404
1.49454760890415628
0.88737884907451570
0.91940389920478804
-0.46939274426865013
-0.22950552624021689
-1.37183117687275447
0.53923080868887796
-1.04044420715879138
-1.07600645925838401
1.23430231933260459
0.20818267298170900
-0.90836158173023174
-0.56950638234322692
-0.74370961201131380
-1.46008758456086918
1.31245207724870738
-0.27793451012651305
-0.99068895954929836
-0.27274221136340449
-1.30117789961315955
0.03640510851246465
0.63893622920310900
0.99756974322879144
1.34165899316447779
-0.69131118325140239
-0.03079720229405560
0.81836651731414611
1.31346378070843084
0.25359657954373543
-1.35168638019042464
1.25330768930876801
0.03779180520803244
1.24005200577478147
0.84110555664702058
-0.90037569426909292
0.63143752260077257
1.11292702646596209
-0.70503017421709091
0.21433782523687886
-1.27825994799903020
-0.71070008574999810
0.44491126972488043
-1.29719517025192732
0.51634194416663037
-0.14167264073391300
1.21743889848700593
0.60929589535400774
0.92059391370478405
0.64407572906533606
0.39350800341250675
-1.26728833932159390
1.08158584783359157
0.03246246498623503
-0.66648033186637368
0.14829789746442262
-0.77951380926786218
0.33566065666855066
-0.19644963930014381
-0.03928717736763013
0.63031296441374429
-0.88763635873323743
-1.48072735397787869
-1.37291385890439077
1.37209371072173836
-0.81110066761698119
-1.48629202326389032
-0.47262440735722971
-1.38852153141379087
-0.07553228842035203
1.07785405302720849
0.27848193843344998
-0.21781531481518895
0.56311353272339115
-1.22417902171968263
0.55257576740678926
-1.34876449768543916
0.84796254128413973
0.70283316060543777
-0.46577242631008259
-1.44717499694282936
-0.53177137634385352
0.28628542633669080
-0.72422377005835215
-1.03030807473800179
0.70744868038477537
1.40565874645841471
0.86761936773704285
0.71713588610730183
1.28691608238534116
-0.95473638422762941
0.08576542747009865
1.38807435365053777
-0.48352412121314053
0.94458423223483201
-0.36838169357050166
0.97269763126811026
1.37628646616293193
-0.84825079276962945
-1.11320465380241407
0.21829180094243575
-1.16351524140430618
-1.22445812819475530
0.68546814764034991
0.77367053699179544
1.08174642919852060
0.88801648974256253
-0.25471194746139775
1.17719705901420491
-0.84574043623042139
-0.97392451101960464
-1.38863000322179420
-0.19290684682995451
-0.28397464458206234
-0.63006965257753345
-1.06404524033684900
-0.37053266998122869
1.38888914782873552
0.21169003069869599
-1.17272732195134477
0.78822954151872482
-0.60696925757470921
0.96121647625816087
1.38154890407503439
-0.47676589274507630
1.31475753139118234
-0.34731167934449803
-0.82583647237692226
1.33473118764677090
-0.11517966148146967
-1.40601507562901484
-0.38809375200314428
1.23079285689871387
-0.07455887270422105
0.76249332351024557
-0.59449507767976317
-0.90025548556782931
0.97753725895899191
0.36637713269682765
0.36535310199928878
0.48291271971219973
-0.95942691504542321
0.00188334002306419
1.36027300068219792
1.13796334581144110
-0.45955787376316853
-0.66186110279283572
-0.96778088622012459
-1.48456037951102915
-1.37376385362138942
0.98006506468517085
-0.32608201261457576
-1.36406050193351880
0.17822881687662495
-0.29686228624753935
1.43870319656226164
0.86374986420560251
-0.41622333892088625
-0.27165834386272214
-1.25697417357889285
0.81809772203785758
0.79437545133761278
0.64428547198611952
1.27460150411050166
-1.34463281524980793
0.44882315562621372
-0.37992009713123648
0.11708949412871415
-0.11457332793080392
1.39966712801250903
1.11769410630112387
0.25614058945565438
-0.48145270057511291
-0.61342072990757268
1.18701169673623252
1.06865988981088700
0.70177898331349342
-0.22370862223446111
1.29045900670132307
-0.79236864414200281
1.31033390359287027
1.08179514546479050
-0.08244543399114543
-1.47904759169694744
0.14657615242067720
0.21828841683901859
1.34353507981459996
0.31780205282723278
1.24909364429504999
-0.81251785666576604
-1.39486341086582555
0.66656056401299613
-0.21981802248980317
0.44589169658206046
0.10696794051703709
-0.94174950141152980
0.74444661012328994
0.75779653124949542
0.54752342181056346
-0.75278994638421681
-0.98512755327180213
1.03749043507335004
0.46237886603428868
0.55630185718222547
1.29209350101938769
-0.28278774361036169
0.00952771111241276
-1.48503697514885746
0.48724008311956241
1.48379846012965455
-0.45934804474842089
1.14748363164766465
0.92183409113892834
0.81182627194158175
0.37745289153120332
0.55289277657283287
-0.94152641218724287
-1.17832248379611704
1.39306795950263140
0.27712522875322659
0.46148244764094154
-0.60620820150296972
1.27301843818867444
1.43532891876168756
1.12069012596140416
1.36057941932567816
-0.21972843873103778
1.01460801010119162
-0.02631402960616286
0.91217040993776788
0.53902439372301747
-1.48821483606637917
0.92133035398006091
-0.84411744622176432
-0.55585032435253112
0.54919597812073251
-0.38974077979393212
-0.70012440017005695
-0.26235111383693527
-1.02411968264845843
1.36148621821411875
-1.34432410358803800
-0.84406614582673634
0.00161486514610242
1.41619241349338343
-0.27741836866770903
-0.73486641692276988
-1.07156790250046385
0.07754915855379818
1.04770019537139891
-0.69410543196584440
-1.05284458681977444
1.27400238007062838
-0.76632499758050154
1.15642457426615408
0.64820592769623375
0.88264885671610394
-0.95395603223676739
-0.35869139946841572
0.46650596825145285
-1.41463308116516728
0.61376323614618822
0.57997716668126698
0.56753417841389220
-0.98056146999148575
1.00445529070463779
1.23578742414760323
-0.75214653368948226
1.47868771661327303
0.34812050314882892
1.03750848571011600
1.26614110681979120
-0.57991904747322431
1.00428050369603539
1.22010912523662207
1.00031066159187176
0.33827127431881820
0.42118968692143788
-0.37213720719653581
-0.41385806645577317
-1.01939920034550591
0.90769183466497672
-1.11533979608788281
-1.34481197528307561
1.35944658582831868
-1.25548354016889574
-1.46838627788862297
1.03260698535525863
-0.76733621262025797
0.74916203745514798
1.44279920031430620
0.72637025234959873
0.63127849908795031
1.24667945598308583
-0.89756524729966647
-0.31538628628915422
-0.78193192187498173
1.27146966257221594
-0.34128700488669073
0.20885652861846069
-0.37657943550065304
0.65233482664054732
-0.35410475511291123
0.13280307068154742
0.35954760428264049
-0.03503232945772019
0.46066186996654834
-1.16057784517904716
1.43832385745130842
-0.23005451121574585
-0.19832841722199501
-1.37535092951434423
-1.17202535909433214
0.67740616255572028
1.21084392281392361
-1.09554797754678934
1.46430523618930941
1.42413457876445149
0.42175238615558885
0.60340256914770651
0.64803824450416392
1.34205303692335765
-0.23808364652138156
0.21012610892501302
1.11090717144193629
0.31073052296477360
-0.01564588252425198
-0.34538570996747342
-0.78530347840045711
0.54723229617617741
-0.57045566691449523
1.11926289743613361
1.32537544133081409
-0.81419061672131954
0.02456268603384836
0.72881906319866296
1.14111119221065471
-1.29436546198915048
0.53903032312720267
-1.24155981566372420
-0.23511825663484293
0.19077261472091264
-0.72219340685997846
-0.97107374418295644
-0.84767338949336057
-0.51683902000861404
-0.92320140477199319
0.32331505623282258
1.43135009454843853
0.43939188296659548
-1.30598259883195289
0.40116595272007693
0.50126824293317118
-0.27036923268806518
-1.50474911836018599
1.24261849748450004
-0.03246943325882942
-0.17388602050722290
-0.94724091477221151
0.29476963303064802
1.15455092296047357
-0.56375292794369714
-1.12576567969100161
0.78886415378454777
0.59270015893804473
-1.08043895592284689
-1.42881966450586617
0.63859366108503901
0.87021430285267787
1.33120383766933403
-0.40451960274314819
1.35378541448604262
-0.39484253219037657
-0.71873289539471263
1.25582227344931696
0.74711982906440311
0.81710050940229551
0.85996082360398607
-1.43824844486098313
1.42374001314879162
-1.48569108670640304
1.34724239079537922
-0.38951127465753721
0.45487463231739100
-1.30019946728555613
-1.47598470626108669
-1.19873465142560032
-1.15257713321524635
1.26454948338170037
0.75788135328472961
-0.25695480078326238
0.67380699442233938
0.06902841069713628
-1.01533064711943544
1.24629589005038821
0.68020368945140985
-0.26505801496164999
0.24608815296065975
1.10225060504814731
-1.11568431114880218
-1.01983727405760005
-0.20415231291805280
-0.42245928104709057
1.09427395538975536
-1.16093451405275183
1.15698424966925550
0.28750405422781616
-1.30386557533149317
1.13037647935557728
-1.22682229786780850
0.14388859064216467
-0.45126380666794025
1.41745215965500360
-1.48794297729705072
0.59013686894827633
1.36780317703176824
1.18468333252465507
0.75917766188605518
1.46028974698603853
-0.35353336581813916
1.06549213590794412
-1.46864716826584329
-0.11407423048397546
0.79013971255935311
0.49220872225745893
-0.41260129079271041
-0.77116363014848610
-1.09532163986626063
1.27031990155747376
1.42733440734376571
1.44699241790537747
0.02574436901709929
0.21378335972170906
1.05304079305559228
1.02784033444182032
-0.91101255474148246
-1.11455454899115991
0.10502121392082492
-0.47321275059459156
0.13319142432172723
1.49035528672184392
-0.50594425474865834
-0.85765477736182083
0.29938220653293196
0.46149689270681260
-0.40613864721580573
-1.16641923454904717
1.06018115714967465
-0.77302532827959769
-1.34475047032563499
0.72606827576338939
0.46184182107205646
-0.18934183571342231
-0.87550349273406325
-1.50548240562982460
-0.09991205061330226
0.43772494912699700
-1.36374563103770963
0.53394448610799983
-1.39946259572762766
-1.49477980129631671
1.16379277558868899
-0.11513699243433237
-0.05398032070885596
-0.30223695312709525
0.69176155013531049
-0.92830514992251201
-0.62824458444719755
1.20807412935018310
0.73055957104054603
0.31041201947091945
1.21230737459431803
-1.38056467573494634
-0.12500414304260721
-0.43706962150837397
-1.01274572869942836
1.26174211106906142
1.34519928075362682
-1.01181369750250560
-0.56085744847439845
-0.30521855656979030
-0.10570210667595248
-1.20308347277038097
1.21052714154428598
0.80375166498570993
0.63808353195783973
0.88346939403996005
-0.02870582584134401
0.31724347008762888
-0.76179933526556509
0.21925328038829389
1.32212738128856055
1.36141000701085702
-0.31059219946073258
-0.29958333571458212
0.07337740236099388
-0.27309955229136806
-1.27546878999959934
-1.48322541250986562
0.77858664084905682
1.49330381697885972
-0.00824053716216430
-1.33481504967633446
-0.45229673117941083
0.74633344583893557
0.91593895473326759
-0.52416782555553709
1.46124057551633224
-0.77828932575159948
0.09734297811481418
1.47949775436266018
-0.25769365872322320
-0.97781429449579649
-0.48305784185400463
0.91580908419363860
0.18269093100020220
-1.01476993072491739
-0.03363082695387357
-1.32752721223216863
-0.50292533673581485
-1.14482182897276230
1.33713038753369484
-0.20643907480745521
-1.09289280822498802
-0.50202349039522998
-0.20716066593710239
-1.13795369563484217
-0.93099297634301181
-1.03664671646611772
-0.63407935670639559
-1.12284357518931532
1.11466946368535291
1.13906597313681868
0.05798153379423242
0.78781286442870890
0.66596631067560252
-1.26877480929092479
0.83022388160336658
0.17207926897668815
0.10748238160656798
-0.42304825073591656
0.17118962342776461
0.68792473012113953
-1.03055554976354546
-0.68254600458923897
0.66001013943240583
0.06363104766333905
-1.02812690441722476
-1.14251027130377780
1.29358363928943998
-1.02833287399892748
1.48478459938849028
0.14815936907241517
-0.46359748419675734
-0.85122972517619722
-0.11465654094231276
0.10120520984214085
0.93466616798254776
0.23251358088043386
0.97989278895315834
0.32341965436073228
-0.31253606760408004
0.89413132260682859
0.17946744423642330
0.51800929970251119
0.52363002177968121
-1.11111954953668080
-0.77264914564479292
-0.29700047096147431
-0.77224816958959852
-0.38311679961855816
0.74530277346841622
1.33995975356829278
1.16692476175336934
1.49776902172204740
1.23285468697789358
-0.37825921585907230
0.21272201699460389
-0.12368785588822286
-0.11518098580744429
-0.86507266938749527
-1.40026208576708355
-1.16906573190027308
1.33008328730297753
0.72913291942027869
-0.70370591044280673
-0.88168649579355318
0.65121543445920849
-0.14765282736558791
-0.77914752611637628
0.27747883023068259
-0.36649006959527392
0.84222728174788153
1.41989129799161184
-1.38426522504182858
-0.57318309483382401
-0.89092044673170134
0.56907294281025145
0.50313672620123140
0.63727082339417929
0.53586847814623351
-1.06649160886120220
-1.25971413713950287
-1.02816127812793456
-0.20434104539797462
0.71626915042406003
0.26395468500074698
0.80330297903224535
0.77107783154580845
0.55054398098862911
1.12773059766779005
-1.43014301608928007
-0.03852170262800821
-0.19893213450700178
-0.73086767978262979
-0.29268313698462567
-0.62872699352512973
-1.13597867314515644
1.19250308219163736
-0.32583133426342353
1.28586919915787012
-0.83193183846448082
0.46120958160610454
-1.49396149910081433
-1.37179601960757824
1.00409320265261637
0.94824319175456906
-1.27890265506276180
-0.10873540879153497
-0.90391639224362519
-0.57046058933177413
-1.10303341621366680
1.12233046251911484
-0.38024138407718605
-1.24885723382447389
-1.31318505680728248
-0.48467578999458411
0.68011008990148147
-1.31913113080551758
0.11613995973021146
0.43927079579424710
0.20324453409527873
-1.09598924799932518
-1.21107026658666994
0.99382531314717670
0.42949877768570988
0.98280684636292837
-1.44347396250939064
-1.51978031731088192
-0.19522338209297793
1.08889984485668956
0.61853374413234352
-0.22536576809288261
1.24460929315575841
0.42017865781462987
-0.95538709398606936
-0.34875528912139370
0.56873569571077942
-1.27472917604833991
1.37177777669034384
0.32231953324151702
-0.90327566166391327
-0.70815732723941294
0.50956481160422051
-0.46972937178511043
1.35157426655759161
0.44825839226861303
0.40056048478350498
1.29236319843942238
-0.24512259685707535
0.36065233196738017
0.95964028886419872
-0.41521328638639005
-1.00042404480157932
0.80692268607833328
-0.33222726720015144
-0.48175836805364697
1.42260673905847423
-0.10893544889571229
-1.42432934468163741
0.74303638590905574
1.40766425516345484
0.81835177063527331
0.22529160077691993
-1.10211479948547142
0.66968176394985524
-0.44838513469407859
0.68134448092330202
-0.64995363624470193
0.00922944805948442
-1.47038571419273767
-1.08799559825325098
-1.12393034420802840
0.93573566330275970
0.93104558921693970
-0.85036916158818521
0.56106420699537785
1.03296944964642901
1.20374039198807470
-0.90958733708989448
-0.06835075848889406
0.74020181032228738
-0.48545455952350991
0.82206741402742245
-0.09954684946072720
0.90445024506115068
1.44782723437822880
-0.25554179810813499
-0.56975022076801507
-0.76635583572725163
-0.66299600820220439
-1.19956716292086774
-0.29040019665777395
0.84026339897155677
0.71072093124648994
-1.22058626125537395
0.86925055951719143
0.97677160159868959
-0.30926776980180765
0.17151396860952622
-0.69726384596961200
0.05838088641552830
-0.87383732542317338
-1.13964333836498932
0.35554775996708438
-1.50904487032269419
-0.58932252124956619
0.79888702986919846
0.89800389190591878
-0.11355388915339010
-1.36915474476300547
-1.45450384803792798
1.44604653794921512
-0.30880181114015326
-1.16729194220158772
-0.28096813506993079
1.34911990908709822
-0.28632355678638655
-1.18372286439222174
-1.20856664536550684
0.87621170207689314
0.48809161992165045
-1.39476114968281739
0.96746285996551140
0.73031990659730051
0.52599269017954930
-1.28298455291833768
-1.47550399848368707
-0.53598377828524413
-0.17623927734187511
1.17478946981751498
-1.33439790446587647
0.44215265383047309
0.53886714856886109
0.41053337027894626
-1.18018981353897567
1.39254081284517173
0.26105028366156430
-1.20915505775627530
1.01470937075952650
-1.36963160069902123
-1.47043878713658471
-0.80472512790556605
-0.39685415332630836
-0.61078365446760285
-0.38804966392708207
-0.06908379857723339
-0.95904700284012789
-0.61008997480359062
-1.12516260236175292
1.47959037736397425
-1.31509610458631943
-0.26815327643520848
-0.38183564960568095
-1.40449549306151478
-0.02407279935396224
-0.54393222674109731
0.38544824660934107
-0.37727848362313693
0.49393538581050128
-0.65484022464787150
-1.11349914092652513
-0.33804790851681749
0.64405128335101702
1.01846238300647229
-1.07343451607041596
0.23434846616035715
0.74298207285163509
-0.20410143323495558
0.45452816407382629
-0.02029057034652272
0.28986675173605175
1.18071762714237849
-1.35677487224918281
0.20865639199128533
-0.48867424179384217
-0.44856272775576883
-0.39922496945132735
-1.04078788179567061
0.09461974983884391
1.01730838172886973
0.59961841666259885
-0.09972376932021573
1.07368370161797189
0.37232114624576651
0.18196639905982603
0.80962453119936661
1.29600681029598541
0.17659496391945342
0.71775444277941625
-0.05876682793828336
-0.03408117205013381
1.33871950275507956
1.17022573066821622
0.16134848789086559
-0.29436203855841631
-1.07426180424478201
0.33689527299160582
0.30487516668993980
-0.53056417054735661
1.28020891851884455
0.74655902470934765
0.36858360631445986
-0.47164547927477057
-1.18765021043649166
0.03049875843141999
1.35296442611091483
1.13767377006442616
0.68131080154054768
-0.05989706587716288
0.93475986294247015
-0.17571973541989930
0.87540511479229355
-1.34917354199193396
-0.79286362643995234
-0.63257999327575543
-0.41429210447759585
-0.51360892864044794
0.54810035482844621
1.32285476482115838
-0.10877601151214918
0.65489589536829063
1.26113079743579237
0.71917624004067016
-1.43839870777509082
-0.41100030320110953
-1.39655112418988470
1.33959724975417793
1.32347614498152377
0.30449171649730600
-1.33195812897986010
-0.22477512567225813
1.07720576474376362
-0.06742070195186596
-0.99930352092055508
0.49570292449006437
0.83019943900699944
-1.53752584833267281
-0.21336019812952681
-1.10259867184406968
1.32867783455260158
-0.40050494481631976
1.37826862346395562
-0.35059991286916831
0.22176471065416978
-1.02109584736717918
0.38920612744185795
-1.28029101411727098
-1.48103010812625002
1.19983070199795439
-0.36614791964565352
1.03340373447009615
0.14789221451664888
0.28698144280451326
-0.28106466999005519
-1.24608473874868175
0.88065822892716938
-0.65390433327723030
0.50647059057983101
1.18964267944175894
0.30017595828356058
0.41145820831901286
0.00755573776185797
-0.06409827313479635
0.49694789910242398
1.16307204348547888
0.91271841551157129
-0.28468236137494668
-0.84529146439708058
-0.22700514952300058
-0.95588467113718079
1.02810650521166869
-0.10324523436738843
1.28340005404329394
-1.22803508553483454
1.19914193346084663
0.72136451567441062
-1.42257231571960352
0.24733254771692320
0.07016089811009062
1.47464277108052388
0.50399690458065349
0.19341822730262162
0.04152876087903202
-1.33255143972898371
-0.73843857256841616
1.33336936163469821
-0.13013312992847414
0.85050884221603329
0.66126434826035574
-0.64607961128255753
0.54091351884610228
-1.48841776175488616
-0.65693911597971077
0.54370599210321269
-1.14138254391223581
-0.02239793501630241
-0.72758765047392004
0.55759878402456065
1.31094930528052167
0.78661887010995246
1.19135621956357607
0.18789246093279258
1.04595533348321235
0.54614726850987105
-1.31471766032000614
0.36651171507069591
-0.41762490524446899
-1.04064282401888319
0.90955410223536959
-0.66438157391581532
1.34074432045402614
0.24243907198613301
-1.15754621672945013
0.25903778822741130
0.00561037377828537
-0.44058040996878822
0.34399653650112794
0.97693042507658123
0.29679419942981911
1.12415073134000232
-0.21620192186946990
-1.04578142661787865
0.03731344018279505
1.15436992960286688
-1.35249645076278857
-0.77797708570301138
-0.98178079055949286
1.28810410568564970
0.34862841574046732
-1.08071012521013743
0.57973309997375133
-0.46595113175880115
1.30917380777426562
0.20966062897939483
0.80846861609544274
-0.82801036828654906
-0.91618638157441734
-0.46186753980070822
-1.42622045842111977
-1.17642801203692193
-0.63175775978156590
-0.20448896900932642
-0.00698791898592770
0.28865429439570967
-0.56897660168458519
-0.26637056728375663
0.59222143233030211
0.11169938391648607
0.93338109154952942
0.30577196710684201
0.28226456612312567
-0.48354704859044634
0.01224793644145357
-0.12643935425082894
-1.14543804185402620
0.65913138450939246
1.00438570904493019
0.73121415023356917
-0.44551210709560624
0.52263477383195700
-0.81370338908441564
1.46734108917888051
-1.36973906640610443
1.16571105009622933
-0.14079249777868530
0.76918454916363654
0.74834402260919575
-1.35288459129779581
-0.96866447016385648
-0.01022347137152240
-0.10274343594130238
0.17816266199711289
-0.41292837494039408
0.43073163215923671
-1.14071533898198330
1.11111295086451878
-1.38947964616204223
0.68700528203887079
0.98486153242805430
1.29101427038924221
0.65559094550300667
-1.00177108269293536
-0.21704450651980564
0.29058683866660207
1.03512970277769978
0.07998034269129142
-0.69277698870132287
0.98555028860149663
-0.57778036065151772
-0.64779121972116116
-0.84464726028912251
1.41709832966346072
-0.40438092349497073
0.66841799717627481
1.25918662535279413
1.14796663932831633
-0.65661189411375021
-1.46514313534433982
-1.33822522127079924
-1.45120262745213435
-1.41064899012771638
-0.35153910684104883
0.84351115700811985
0.92924513275494114
0.37881412729542391
-1.24475730926131045
-0.03335714769720076
-1.06201066102846231
-0.20357362280877947
-0.38383663531115192
0.80158579654625917
-0.86347293243780021
-0.61915441668186888
-1.05752861954176702
-1.03555262730555619
-0.49489383705674450
-0.73351885187773458
1.14164756978178139
-1.31661619610594505
-1.41108920556534900
-1.14958239713115251
-0.54596395968565514
-1.14305292902395794
0.27563392274716875
0.75359504672845823
1.22111866616702547
-1.41802737060813833
0.91013223203891602
0.13372990052615566
-0.84866210439777146
-1.37214488045258931
-1.43745062785523370
-0.27700963598778006
1.40040855443593193
0.48927511984518440
0.78110197099874512
0.18229738997782122
0.88195915036007477
-1.44037411238165491
1.27201999704564139
-0.19655755514461234
-1.15433231154938531
-1.08230735652252519
0.51813611009557559
0.19552130678665444
-1.25052210565973732
0.22442566505545683
-0.87641978855283875
0.92661685383015158
1.05057029749599362
0.13250383926240938
-0.70860940936291950
-1.39364291288625020
1.46185065685529825
-0.42074652559554349
0.32437819419399272
-0.81515972373809020
-0.12296454911337672
0.93358230792071539
-0.34266724081048111
1.25036848651069055
1.19372946581003991
-0.36174476187861104
-0.18086117945574026
-1.16263895877239087
-0.88826538774711938
1.40899373018759744
1.05817067179456692
-0.77483231450893342
0.10374778822735793
-0.37528096880907663
-1.38998715460891420
0.66194512886224866
-0.76937844064851024
-0.78096885448516262
0.26238233570470970
0.54768140431897938
-0.13936711186036266
1.18245239366194732
-0.66598686961183717
-1.11019666444904574
1.34889992426502126
-0.94766851369241789
0.04749236077247246
0.87220158837993955
0.93553742041015608
-0.80307299696926893
0.87863946841414964
-0.22752610210915455
0.57345854807503271
-0.20430377217645035
0.65919583446017604
0.86193845893347765
0.63299365921870365
-1.03154856388838767
-0.70275917308542513
-1.49190773600888460
0.86989643380529735
-0.84759883564248606
-0.58354848103601320
0.72520638224139145
-1.04511598171301157
-0.84239693444972819
1.24291091720216862
1.22013726722417171
0.93149642747362216
-0.66134139885935384
0.34757664374684150
-0.86174059268822423
-1.07439465054872008
0.76246697543215047
0.25987742809807984
-1.31384395263013554
0.16895199788479578
-1.15884455150822330
0.48309272208042769
0.51016265434986707
-1.39462718892389037
0.01343004877298156
0.31090266344295037
0.81320230579629726
0.32279904630749656
-0.10130798364368822
0.39410433293712299
-1.15104672284244614
-1.12453061749596062
0.89315248619713139
0.36503105514947048
0.09934157863302459
-0.14738215314831263
1.33045677277582564
0.36573258073638032
-1.19510022936748039
0.87999652760621305
0.42193753626285874
-0.27341110091351606
0.97402908117921849
1.15028594111055971
-0.45165832118128635
0.67669196236122642
-0.15890563485662240
1.02013993080552301
0.69230479481289975
0.46165852031222060
-1.39253589092393160
0.76828763456504012
0.63311233620533358
-0.60056824582870150
0.12672762350275027
0.23816116588793437
-0.73858961239154153
-0.89013241895664486
-1.13145179132036522
1.24793020207952843
1.43935867645528703
0.78936401107310672
-0.21076079763529948
-1.47655698909741195
1.18086620857073177
-0.47629181835369405
0.80424564552924505
0.37003381559500209
0.46044719799358375
-0.74080686439508969
-0.02592590620276593
0.74630596249945036
1.16637301707778884
-1.01984323630585516
0.38243670818565445
-0.89247711557465947
-0.25345820132732166
-0.85512564812320080
1.35692075559441538
0.40105694580140394
-1.43492498550986070
-1.25671776247868805
-0.67945012753654788
-0.16386705684007241
-0.30623818527732877
-0.49246154999875519
-0.93319505476321474
-1.23805538179283747
-0.09954516481825111
0.40897567233524801
-0.77782233313986882
0.98530440132133223
-0.71235862544007544
0.45308696641723434
-0.07889172415873777
0.91221189700213023
-0.72686447878527638
-0.45706992032900295
-0.13127388987038904
-0.90291696360286511
1.12917947258569495
-1.01083912086616201
0.77685070913867493
-1.33198922425106603
0.73032425297826586
0.32517509047723292
-0.98911185126210144
-1.40564065310192787
-0.21916490358063132
0.94807186367887264
-0.82601720134182077
-0.46544624660776257
-0.02066410995837354
-1.45345063859114543
1.15510305813699810
-0.85540531804977527
-0.32938853981502297
1.11327459644391036
1.31319981154969878
-0.40396871564998676
1.18582088589223389
0.58739708075013775
1.15583901001513190
-0.16606453087151163
-0.62823639414725052
-1.25591207081766632
0.31976681187254496
1.09891364721764662
1.34312847928260282
-0.52344184350234102
-0.28808179190363259
-1.40126289877419752
-1.20869523181487737
0.49159324183680053
1.11235610016554576
1.24951757052393009
0.24728972677907801
1.44967160124756766
0.02757330799701091
-0.78745482339062611
1.50590503087333372
-0.08682692941235352
0.70277510601067905
-1.04087820725518077
-0.95076331716785867
0.44066398363165954
0.59164095119676374
-0.43383167579789822
1.13369763399190204
-0.99775552914263832
0.40619984862083303
-0.53944973792464734
-0.72937524744110804
-0.53956423943803788
-1.09931940259897609
0.61353793251824018
-1.28523470916345994
0.84068878840038919
0.25107330199978251
-0.43258850372165120
-1.24738418381435046
1.05708399893721938
-0.83581102426757892
0.47917908626916100
1.16851456478380200
-0.19993670252359949
0.27751072972663021
0.56255525496813596
0.33181818926694440
-0.91771736540314919
-0.13860133315216089
-0.31853753095470722
-0.07462645494405910
1.18736751178063038
0.49310342032149779
1.09505257406168344
-1.05941489028674729
0.80504637002715740
-0.40542593504701918
0.80952285785691447
0.49207151956081413
-0.67445990059962002
0.96553755352903903
0.80291555877926113
-0.91202242395591926
-0.59067633164335986
1.38596077417194219
0.34315129920215337
-1.42562877453409143
0.33349533948299959
-1.16210002240579358
-0.02419222158017232
0.37087203121099954
1.19935889169089482
0.53327984469292578
-1.39481178660826211
-0.45672638949162692
1.03899440902771478
-1.44218270462190179
0.09399100302507944
0.38783364176171825
-0.42277534381912801
1.08459590226254843
1.07613624584991507
-0.57110294947007934
0.94525374962607234
0.11957501337786909
0.40437586501478412
-1.47182688450619459
1.10795670272817159
-0.24564422811756759
1.41295161548354686
-0.77416096243244659
-0.96698747786495898
1.47457672818791519
0.63902515220372058
-0.29858579467712598
-1.39570309544452043
-0.77470773731894993
-0.89863544670973705
1.24329751656459075
0.30077904362436753
0.55732871101447223
0.25417516463791850
-1.30365923883825086
1.36613886863550471
-0.50902028830874091
-0.86648083602581272
0.84576558710893734
1.37690759598170676
-0.39534425974069126
-1.13985139167932870
0.81022623790598103
-1.49600331467930014
0.45647785263939705
-1.41985937477967550
-0.88904893314239064
-0.07150815854520329
-0.10352297392526019
1.26635681851455151
-0.68179616003122534
0.93523481269358977
-0.56901730027362463
-0.93474712249628955
1.05513912693713574
0.38264977806903983
0.04999368287615854
-0.39919763809106806
-0.01442083996045535
1.41062928989832503
-1.08519524951480761
0.17987675976486153
-0.61593305974885948
-0.83007422772564565
0.97194821193150427
-1.34947595249826779
0.76137296140129707
-0.70327829311439927
0.78537465017718799
-0.54776526496300826
-0.77764747252193489
-0.51803162992785468
0.04614513625302682
1.09734446365123794
-0.83205526880767278
0.31018986644618485
0.91141571858410331
1.22693386369382296
-1.49102368945861286
-1.30680842959250088
-1.12436363084888313
-0.12485579366344352
1.46875108645560948
-0.68078409958482700
0.47700778447837650
0.67720606156600605
0.35039246129462709
-0.44089894983601174
1.08522601850933209
0.04036893342880659
0.22277547008655918
1.05760311046289179
-0.26783524855334412
0.00003456816272673
0.60655518373538619
-0.51858776081053459
-0.95550894064306824
0.03798303920267709
-0.10408141954461680
-1.13714748744258309
0.62432521422418152
0.28283773201167511
-0.32323982552228142
0.97759344729001874
-1.12241109557695729
0.13914097043964313
0.47932456064277335
-1.37531714158150531
-0.41671742121113403
0.65836312147947251
-0.98531781935255403
-0.93635469456220399
-1.18551918396587186
0.32926012778652414
-1.30218368365876702
0.61602063751406133
-0.97374170140211258
1.27425634831665024
0.26987434653717080
0.16912435777953300
-0.83237672685080355
-0.13403145655938420
0.66383734593802568
-0.31400262301128468
-1.36890552747876804
-0.99825579729328018
1.46736567187764311
1.13960184474624282
0.55965266595748675
-0.50914835886174892
0.20019633566856851
-0.89496916558573858
-0.19631450545119719
-0.06938634616747037
0.14971897920540342
0.77773413993024532
0.05765859004782189
0.96098186293417620
1.36046377369505178
0.24882213072005777
1.17452913951601978
-1.33245308024456999
-0.33854471818250326
0.52824257328497215
0.59982931775581372
-0.97783380341895221
-1.41838992761976690
-0.72126216875970328
-0.41356808232849501
0.62512026162103262
0.29238895264943315
-0.78428006292998664
-0.56565376099944586
1.19796870223307672
0.33028014703459269
-0.48716173248591177
-0.48119422186344618
-0.72061028059019594
1.44365605582863599
-0.25098142751416164
0.40281319453751485
-1.24114392298629395
0.24568773875770059
-0.27704926085183762
-1.37169947664334213
0.45462211921723161
-1.46431740740092686
0.18212859703674200
1.40629246854091128
-0.68247137912219480
-1.17083824126279157
-0.40020147208329365
-1.45443699299055629
-1.22345079027720516
-0.35888697525850816
1.06667787396232439
-1.33299085303082010
0.12334315031775386
0.28699272306868157
0.12902229267963530
-1.41406338211610438
-0.43202068985008119
0.88280783523391748
0.09971694941358257
0.55785359355226904
-0.74394711805685143
0.69052688069383494
0.40021952500064206
-0.24300479401422920
0.25390173619684259
-0.74881482788166343
1.05006014508224355
1.49850623755346191
-1.28422027791037152
0.90779334784299914
-0.22974253234190400
-1.18755318345123140
0.73682941719069162
1.28207529404294451
-0.25324254583014078
-0.15343095162383494
-0.11185004644743668
-0.43443618497362041
0.20117266786190668
-0.64061527145691066
-0.25848397278047830
0.00205625705097110
0.13281710273413383
-1.44368235727516381
-1.29366123800025812
0.38409588146509360
0.44659840406102169
0.30855434862544051
-1.26818974105509286
-1.33897441500731906
-0.36307756144944342
-0.48678582933044418
1.47141931586166619
-0.27444255106970961
1.02623604486598818
0.45578323489452499
-0.11929105024049744
1.47815337740755903
1.25371640653844030
-1.35478022481957150
0.36325016486302314
0.99607674779881927
-0.77151059864157034
-0.66014709639008318
-1.32906254542611602
0.02478983776413478
0.53043923629415479
-0.20074630293916121
0.25688663379706206
1.21256410450516050
-0.37950081795591528
1.22280337484835355
0.40290480441065790
-1.32134850215765876
0.59518835971219819
0.32447551624520687
-0.97504449529665826
-0.79425036164758189
-0.01879538711660360
-1.45246672384941955
0.66340649046973610
0.15302126721985326
1.27891081972731158
0.60049093302639400
0.75149258485610337
0.43049323486501928
-0.81153160968073168
-0.58424236750924030
-1.04037434507356963
0.70695629010092842
-0.29450130624685056
-0.06520627381027225
-0.22365617043941036
-1.22301723422439146
-0.44287109185440710
-1.16216326717151652
-0.33064585137015773
1.15157564109626276
1.31078693635482613
0.62412970324777706
-0.53907213175816138
-0.40390706175086716
0.02124085583631545
0.65921985702450370
0.48075768141016101
-1.07998009069981649
1.04586830920377638
-0.84518717742755856
0.60185220487443714
0.99603787859410531
-1.12940486943524987
-0.46254421269291868
0.86675456484564439
0.69403427533550643
-0.94733779563549914
0.30165333902912378
-0.37463092702018530
-0.86605995990386975
1.07478306413910141
-0.46116393387581128
1.20702740415644949
0.72448598179570045
0.76664229170243969
0.17783895309057821
-0.57886271283858859
0.58256856562679193
-0.98128865973029011
-0.39969939080182576
1.14420923858832757
0.03977804631306349
0.31609745529581540
0.99090323172169781
-1.25685640059155612
0.15176147398668857
-0.18876816606156557
0.77730866264022591
-1.28350143359751545
-1.11207695921860528
0.43188877885910149
0.81633022565365643
-1.11213939546726182
-0.95321316806366463
1.17444373823232806
-0.00157974166877615
0.30232569187744102
-1.36217081026646358
-1.24292405567564912
-0.79137249649044017
0.31967070420872262
-1.23913647685850670
-1.02850483423887518
0.64311973584346105
0.22863423307912686
1.23418816837697554
-0.04178688795897524
-0.05038299422075733
0.07656953595737841
1.33229044426230292
-0.65351939180793717
-0.85951919737587390
-1.15621843761754928
1.45464947116228371
-0.01749636541166284
0.64456883910076257
-1.47957417372334588
0.03844974967517028
1.24358313736057813
-0.58824367021248591
1.22866951475574004
0.83170080229286758
0.26763202004226616
-0.35114459166134659
1.41106884712977765
-0.32157878203523493
-1.48407415580337143
-1.03988096117193218
0.93370770061218533
-0.41324747090530123
-0.48719551917664383
0.45004663856315430
0.43339546320745331
-0.14791942544817249
1.43243343115908806
0.02203683090214891
0.96663040786348164
0.72034710540038716
0.13254771224996728
-0.66617192237741307
-0.97128286240417172
-0.05413673383110409
-0.41656866584582797
-0.67936772976213355
-0.59521672905651624
-0.01501488896920509
-0.90382800109887784
-1.09949527763807708
1.15190131885880542
-0.17446200394012001
1.52475671183260397
1.42050455137915588
0.13767346644923681
-0.99588580063796428
-0.68222496398951060
-0.25843660453643791
0.79928540768497880
0.78145131388374511
-0.63018190115794281
1.40990268353935555
-0.71684254811047976
1.08342916708823767
-0.23017897310483887
0.86573280792365959
-0.08155356482235394
-1.06259630660823046
1.17191600335057755
0.08313879397759717
-0.95935215250345329
-1.22020893989987034
-1.18169118101933979
-1.19478215854103276
-0.00402071407752861
-1.39016642345678765
-0.92787220236890000
1.17810440900980518
-1.00631680488870656
0.87259272670379939
1.00489994257454573
-1.21572672780862012
0.28887781446490474
-0.04285723620090118
-0.17140507758771240
0.42042774386333343
-0.76410734042443962
0.72075676731166727
0.51439222917685801
-0.53988591114325679
0.24939297587380319
0.31695827799213150
0.60587069798395787
-0.96031445221866119
0.45095333889623740
1.47949402464716395
-0.46871165019473970
0.21910842189378527
0.76907923084800900
0.28569123091747850
-0.42468806775516926
-0.69921372141491900
-0.54165746859607311
0.89011039227111943
-0.94590454492803666
-0.36911432648835840
1.06686277633049187
-0.19110208605035717
-1.40554404757416251
-1.42708325881031173
0.34750716694908373
1.48003414966590885
-0.46394025818985629
-0.26823968013980359
0.14039052564397456
0.94541537161240174
0.05124115009704119
-1.00077774450992951
0.35804882325160381
1.12597452275557020
-0.92361038685337993
0.18107541803441912
-0.32949005550242949
0.47896481502727178
0.42222461696119457
1.34440325631837232
-1.03994176360456492
-0.57651338904273086
0.59177099961291468
0.28678366951125012
-0.09088460489533134
1.14059898615731448
1.09650372006434460
1.47884323029894404
-0.08245304747173289
0.67356083894446406
-0.04056938643083508
1.49331081277685618
1.02372102464057746
-0.90408915651138178
-1.17609074193175656
1.39645363177430615
1.42537269492972762
1.41993096900849980
1.21458429696010262
-0.50207268950728823
-0.58477054989706290
0.50175085929246488
0.17641593736638084
0.04304722244804659
0.80437118962294851
-0.53013094044810027
0.56994603899961627
0.57155956203180802
0.69468915357049577
0.69524115737208725
1.00961779571931998
-0.94536483534285720
0.96217828671447259
-1.38124860597682364
-0.05604898838634204
-1.49604989896853402
0.62121326954023837
0.50266506934473421
-0.07445509533012246
-0.08969535579938583
-0.74872892002251579
-1.00727258893982641
1.29819170856424848
0.13852202791160775
1.25285848895337093
-0.27610269184673281
-0.30335596843961576
-0.68327876785018493
-0.75421634202957721
-0.50183049298807503
0.08167582746603355
-1.11374061121404000
-0.76726648676088227
-1.00347919044976552
-1.46262609818938771
-1.38032474443793896
-1.28062607480633894
0.47625859912798435
1.34435892547773239
0.16522454307039594
-1.38884889157412528
0.47366050597861897
-1.18424277626238239
0.57388661831982180
0.53726973484017082
-0.32328605052945530
0.65262876429915051
0.84999715344739113
1.20539577324070168
-0.83325131536844510
-1.12902168928238456
-0.89591559804897358
-0.98146283646380039
-0.65189511721375015
0.02198359703652755
-0.01099369099918591
1.14054610941576851
0.04268558457509119
0.63553144590755839
0.52569239802272638
1.22361167539575488
1.15803336061456386
-0.56201770633462789
1.45084776530616710
-0.22537882863246325
-0.35891357338517660
0.95619349382955188
-0.71027682841701600
0.84452092223956854
1.38213470078924772
1.40171303712227391
0.74929267695677582
1.40920513844452611
-0.17733490134452193
1.42454684426977130
0.13438178600191558
0.02623467821327457
-0.68851411657104022
1.05619129355100871
-0.55832798702923836
0.28977056731153655
-1.41869248646133794
-0.74346686143157725
1.38559208514016730
1.49698864146763655
0.74298413672629904
0.68047775712989567
0.66929939801553429
-1.01850150170776765
-1.39581231990954402
-0.82987645665557630
-0.97709575902293855
-0.21936209959040712
-0.16507704193941894
0.35786245051300031
-1.27155871261411679
-0.91796023737017785
-0.42031842355147758
0.59013213968897615
-1.15223467757810516
-0.44582760889725509
-0.35326698296801989
-0.01672788948459059
1.21638413671642009
0.73070714795173797
1.38123318704999676
-0.38105690381731777
0.08999908570103184
-0.77116142827121703
-1.35579000028232843
-1.04202673028850157
1.28430307213237582
-1.25029667049429505
-0.28934925396819067
0.59426350015006080
-1.06900003519919595
0.95096059845292003
1.06248029698238056
0.62427875337711825
1.44714036171905547
1.06657313249603458
1.35446851979847338
-0.29272848336436275
0.25398737063931864
-0.31649113197810230
-1.37629150150847246
0.42777542890961451
0.83134368246982771
1.05719591302331328
0.85258986176587559
0.13057254205568147
0.08016840652163189
-0.87649799050089350
-0.03361685559470869
0.21324363498952856
-0.43846459982730196
0.40316440993211877
-0.63959403105224288
-0.56893836071620074
-1.30593628673647366
1.07598716061464406
-0.38112082080254533
0.91950284051269038
-0.72169814224079665
1.24121968741266553
-0.57549784199388754
-0.09950832790602324
0.10460963723949539
-0.42821611680952981
0.06327158401299074
1.13600392344008583
-1.24647811197371694
-1.51495487102726112
1.14194664116940925
-1.34480378551363255
-1.40203318062729787
0.00902169927045869
0.48891771364565401
-0.30037703308719976
1.10901655604884652
-0.66790317093327434
-1.49519817705520808
-0.55956846123332182
0.96601829515737181
0.97933772504534533
0.39377702705825024
-0.64728654468816316
-0.95816729842397941
-0.59996438895159054
-1.36488882457329197
1.23644382439976819
-0.49885713291770523
0.05200682745959728
-0.06295822185254102
-0.07137692780751748
1.15013123839141262
0.11006836428630416
1.25868537682041182
0.61863918076701452
-0.89833031168950550
1.12637407160995462
-0.97769844865212374
1.06974214979118964
1.11182418485327883
-0.08147614641341173
0.73625586025154721
-1.28816837002131890
0.04326884405620949
0.81091878928475902
-0.83384237378090365
-0.79910923272769829
0.10019010362301729
0.14958296211712996
-0.06353565344240669
0.89740751190406576
1.26009839244124744
0.65618371934589315
0.46531371946405053
0.11052695724694568
-1.38898810356345837
-0.51867796397400656
-0.52679069672097567
-0.43118571415944901
-0.40061424175540350
0.73702173583149611
0.89559546247015842
-0.50211290572204126
-0.89035952665365292
0.24816596594255871
0.18692142816869084
0.38730514470817901
-1.48909008821906474
1.31742798855091836
-0.03726620542320417
0.20521465628901800
0.66475501231453105
-1.30013108251514353
1.05558309822154062
-0.41062499877219361
-1.47394580673086906
-0.27311184694545065
1.40430920994272412
0.02795050986890228
-0.81911374288291772
0.90259082912061117
-0.43579026382286817
-0.21755240034062531
-0.63099780637871772
-0.67418416759074695
-0.35942898819733005
1.29014906789524009
0.41738520564145154
-0.35877812202960163
-1.07457340567267234
-1.20676051816625551
0.77064405662291935
0.44175925889011858
1.36025572481747115
1.07395839183773445
1.09459825264124833
1.37970976680675794
-0.37027077952657189
-0.82385050656092640
-1.41829196405509173
1.11348829405777572
1.33652316342898869
-1.33469511789986495
0.72671203187421074
-1.37537340497393923
0.03411302496617311
-0.35613138367940761
-0.76529593820927433
-0.49768132255480041
1.36567185467311547
-0.23795628199264082
-0.78631598743731046
-0.75129511111501002
0.09314532782758306
-0.78552226726068985
0.21498361390695803
-0.96531492629181304
0.48997103321156837
0.99210597719282545
-1.25332692287097314
-1.30293722114519350
0.13024057628390609
-0.35265660376766955
-1.34687529574623044
0.27825029552922792
0.06187846399245695
-0.88970135720177423
-0.39742456723576947
-1.34534130748987812
0.60090817563870702
0.61649839357098857
0.62546901011018818
0.02528267221497365
0.42101319525470010
-1.47945858195944902
-1.40154180791797844
-0.74296378918336847
1.28327559385961698
-0.95398167566918501
-0.55067777676374730
0.68385636446202425
0.28524617995458540
0.12559397934699532
-0.56626311547818220
1.34693428779074331
-0.62485506582883210
0.15827874664345870
0.12364972302874844
1.05166238941084189
1.38419145582015535
1.09177174981210245
-1.24004757713891012
0.27088152124281428
-0.98438487731206026
0.78389288607998509
-1.12151289122629061
1.06518405423828955
-0.00665775801657610
0.43681490837310177
-0.22452728951419304
0.71850998309287561
0.28064393028478107
-0.04597903236863217
-0.67006771747683069
-1.43916267661353370
-0.01599127861716915
-0.61661499016107568
-1.38195385050504238
-1.07864736232069847
-0.16285417367552207
0.65158383659756181
0.78645685746227623
0.62732091277949387
-0.77699488173316655
-0.42827074185547265
1.40273596226216513
1.15772584327965888
-0.73473270010999470
-0.78033624708012717
-0.78919746004841074
0.26602574826161207
-1.42271764808534651
-0.49885619025117806
-1.33484561646934852
-1.24070236612087959
-0.28023961646722273
0.12229200566211876
-1.36469800283252751
-0.01647096828862023
-0.14797697401822285
0.15798158257950001
0.18409218889977155
0.66672468811404573
-1.34438593429718134
0.90747749289558755
-0.28519210430005787
-0.02813018201946207
0.26380926060401594
1.37929223453871774
-1.38345172506078296
0.16128130891101891
-0.32304250589316813
0.18446879736912267
0.71128245176658100
-0.06845381722685523
1.27301626325151251
0.60462936798836675
-0.63494357389653300
0.51739187726694302
-1.03408103948898589
-0.66166427182138354
0.48758414282072221
-0.10717347001358107
0.12136130995292238
0.84817275263766934
0.84020644087580343
-0.41531661144798554
0.93094312968112980
0.41741117635360186
-0.58832877166505015
-0.83764372798949449
0.97065322844190149
0.97104298165933400
0.32888565863011110
0.07198588822536688
-1.39923921455996814
-1.42031616895930868
-1.03654251394215735
-1.17244415003114333
-0.69290628984833613
-0.24000602064938528
-1.26487821190735961
0.72093132971839913
1.51302131848170274
-0.73918598200817487
-0.20340929684613004
-1.40783568864905151
1.29810205660731870
-0.07145833861744590
0.73632282021171769
0.96360913281662230
-0.09434123271622898
-0.63227389796251032
-0.47865643818641457
-0.89125610305896397
0.08639023694424389
-0.12484702118214182
1.16666447623587444
-0.88821404914064506
-0.41818014368823775
1.45814487819791005
-1.15453507463320504
-1.10689295993926540
-0.52551495945933291
0.59034552739836454
-0.28023008696353474
-0.26651825038283899
-1.23660227645322007
-1.15457956967737219
0.56718326097657079
-0.70579197463183196
0.33389423189074546
1.36572051010555451
1.49278076608445720
-0.17021954204878842
1.42692702588362819
-0.28569872660613721
0.61001564169695555
1.33261991394022461
0.89207428789261112
-1.24864846245948868
-1.12207088514805586
0.33988850949147348
-0.23171286072816105
-1.43244592304477369
-1.11676765392973909
0.52544941253215771
-0.95988016766944351
0.72160633456515011
0.32147715472451566
1.25316941672250204
-1.09880117508897213
-0.82676519058986742
1.05313968924006307
0.84431956340597247
0.54220020374811462
-0.66542767006480563
0.77811465574883087
-1.23487218900350570
-1.06469776743035327
-0.43873700686115197
-0.83417472850929275
0.20526806036967077
0.25187212634596529
-0.92271039852724901
0.29300970746297189
1.04350154393469552
-0.14246576696258439
-0.26572540808190037
0.86689860118948148
1.04973601034267516
-1.13817190085983300
-0.58910407880487536
0.19571719148802683
-0.09394677477892283
1.42174104915273647
0.50613229552067629
0.78048302083896393
-0.52665665266589079
0.04486697443203773
1.25432988585169447
1.43573537068745316
-1.36688751484873050
-0.35289304527820053
-0.71733917633037925
0.51765104566647013
0.14412603042555561
1.05033565710937093
-0.12148505846403149
0.95056805886196138
0.46300516676132469
0.56325227232362707
-0.82557150990438610
-0.34543952511766340
1.03926371365668846
-0.86120543630132995
-1.07132450664352197
-1.28267122053205340
1.44811751795120336
0.32655314686269515
0.09015106509919069
-0.10193424824823294
-0.44329709493950042
-0.78286701098683453
0.03256856227958971
-0.56359054901817629
0.63713719349288811
-0.00969526365325026
1.13368007905731516
0.11181103098797211
0.83017511697705215
0.12667603993026097
1.05869948502787414
0.16455205046813698
-1.18203394256618588
-1.25066026078138259
-1.50561646180833097
-0.93636873756370209
-0.42449909068707276
0.84617172264267726
0.31244864814829548
-1.11177240941372246
0.51834898892019710
0.82459559482662503
1.06085110254157056
-0.76601871216253703
1.49093163888809932
0.97220152929261283
0.50465022649117985
-1.19216668643711432
-1.13479889382638954
0.75466186324368245
-0.28027093887571453
-0.31099983622587107
-0.74061574417960185
1.03507762863585540
-1.23851501949193921
0.74202694631103050
-0.57639044365417025
1.34773595061808948
-0.43235776033312129
0.82616259402226544
-0.92285982400290645
-1.06354543973709004
-0.43542059856267018
0.96763842492714180
-0.01899749601180088
-0.55925822523019519
-0.04804680739186675
0.40232983497437202
-1.17583156155564406
0.80657009825351866
0.70681470283939607
1.18380162433573521
-0.35177091829338036
-1.06101940725720545
-1.34200834008666381
-0.23152776693168697
0.52385608880945644
-0.60666210758205086
0.74938810763294028
-0.51234489141855544
-1.14015906934411215
-0.77210066160126345
-0.18647687930989362
0.14750190797956633
0.90760987549442651
-0.31993860056516477
0.34528717749003995
0.87664956565103402
1.06502577439415558
-0.02118043532357719
-0.42951227434531303
1.40501263921004726
-0.10581083137560471
-0.95882958953897945
1.32255921028869250
0.28107604624673199
0.43758474759113214
1.33528172064961859
-1.22083248120893795
0.98068276350533468
-0.53028270333929917
-1.28856946998767041
-0.93167892231870975
-0.65310166345470788
1.24045772483177985
-0.57398130196801478
0.17832558891128675
1.10787624852444022
-0.48161752837963195
-1.37428967837595506
-0.48385723956421423
0.69162070022094169
0.12771346887318524
0.33905029612540138
-0.84657577293670272
-0.36724053835787429
-1.13631289800829371
-0.89923517730676850
1.18819711570994424
-1.05200202817524202
-0.76819654557649553
-0.71332919922984650
0.78748544452724201
-1.17112561161182849
-1.07572971135342521
-0.83442053039217023
-1.34879320115082590
0.57710848956790861
0.56324468476299316
0.88673317731219947
-0.38129345853145802
1.13213682553192085
-1.25934901701422541
-0.28189479216357316
1.02422853101334788
0.94833904567503269
1.02526825728541215
0.83829873683893685
-0.75745347524566664
0.64690983148849079
1.39163503968654889
-1.26421571916559072
-1.54915506830353933
-0.90094378751070925
-0.80019210352602865
-0.88865120211334991
-0.32512806501744806
0.01226764143489708
-1.43740715785054518
-0.28869219230701659
0.85915132805015737
1.08547435542140924
-0.83032025103892382
-0.67659501463852378
0.21497430386641170
0.22109323713734555
0.70148077698914235
-0.87091661076868454
-0.63276873497130171
0.57032477483829369
0.82780600748606503
-0.32147089151989200
0.21951435221435736
-0.40194415494630165
0.80321464691747801
1.35745599197241540
1.28538488587341115
-0.18764693553211143
1.38554755751645797
-1.07321175483364595
0.41100768043672431
0.15178612013745874
1.03234384909740418
-0.33962611807578863
-1.19873573837693348
0.55579246173946018
-0.88874835659533136
0.80396387775133049
-1.23943701766100656
1.17280142923000597
0.42510222135366765
0.72641755999164226
1.36475603532863321
-1.29871143514245824
0.70662575976755382
0.03336312075770645
-1.28085789695598917
-1.21162092072078420
0.94599048445314060
-1.33315573389383890
0.97888207081127132
-0.04200316697086662
0.76548470038130101
1.03713763367217138
0.59130675749544981
1.26460960893737728
0.98330218285974957
0.67074408298670796
0.58081124661663075
-0.38843342835751316
1.37443934089646946
1.40282418340470771
0.51894190421346942
-0.14033765817322907
0.36517881404876040
0.62821453725493503
-1.42137368249267637
-0.54040416197319130
-0.26095675291432374
1.21150924738867016
-1.31280091029412760
1.19364057463747031
-1.43002003431919156
-0.17333279347685579
-0.51496813307958811
-1.10358231597833623
0.86829739058048661
-0.81112807419212529
-0.44976036184104234
1.06979361902381509
0.45668802668217090
-0.77408966218961905
-0.38523948971232952
1.25941058431631236
-0.21138103202899772
-0.21839419090483830
0.03996469840624023
1.26231996851973349
1.38172637432521661
0.83868135327881066
-1.23581793174530574
0.58397663839151737
-1.06965671061167744
1.12246946316759044
-0.36988051863546684
-1.43855016359386467
1.09984820913680847
-0.23387597676845651
1.21626633488513702
1.18935810540117037
0.40778851442852571
-1.05329805648544217
-0.67774833800526801
0.50135618207830324
-0.56183013605407595
-0.30201984907579055
0.83778546050758285
-0.08856996291915638
-1.13784477382721927
0.85973219861990391
-0.70681865761474405
0.61780798945745408
0.29907276850678433
-1.32836127108804813
-0.02355652271521400
1.31823470513885521
0.17438773807385627
-0.83613114818744938
1.46304268207288080
0.46800923711843667
0.99347686638508936
-1.48946775180019508
-1.35860910663743217
-0.35313649322956853
1.39020141267342412
-1.03042167032180587
-1.14176338958050771
0.05002602861055330
0.35078243453708280
-1.38814195881848956
0.01430290996968996
0.86665008385865427
1.35784941515655366
-0.16108744490827023
1.39480584208823966
0.44010028480386243
0.67082711411987916
-0.94798846244800228
0.38632120548112486
-0.54894439235977788
0.31451168154230652
-0.94593210456587673
-0.84914144152830140
-0.18998256854389028
0.99178289400580599
-0.33902431639115821
0.19911595292504505
0.82698840317131261
-0.41771092604581195
-0.62435334393111652
0.49396706401972262
-0.31675503540486594
1.02634236749916163
-1.02271759992016786
-0.03380375855139239
-0.20419872904750150
0.36034378725952226
-0.96523936168516644
-1.40380369341365041
-0.83359827045034485
-1.31915933236065919
0.49743690333719204
0.37760421565081065
1.06270029923713527
-0.22674055470199594
-1.01661509727878396
-1.14922172915123455
-0.02325062725833661
1.03697616583153551
0.76770056734745029
0.43906546659519952
1.16421065834281756
-1.02332094114852268
1.42435819484829351
0.35484685440354058
0.58478089524785259
1.12680281774047231
-0.65665411142169872
-1.46606909625486104
1.29959351889235863
-1.04291999299416616
-1.40872058759786745
-1.19250019708011501
1.31312041046879413
1.08809372695361128
0.72048121334372894
0.72487761137358964
0.40984229248508536
0.46551569714559254
-1.49411109496418559
-1.12312092470999048
-0.75689433971267006
1.30204350006615055
-1.34899258617026785
-1.48240892289977455
0.95309726243038961
0.20748822698071320
0.23511853551652084
0.99546158554069508
-0.75110663075162065
1.07354549541043287
-0.47579446826235189
-0.63576871411487890
-0.58109449944113867
-0.34424845498040041
-0.95550765120311321
-1.32410530214777467
0.84067528668090097
-1.26634635695701947
-0.84185437206100600
-0.46665469956050537
-1.25379783969644665
0.43897214362768422
-0.05236090501261331
0.33471956710732459
-0.94318579275652170
-0.43541779207233661
-1.11913147880518982
0.31639763027162987
-0.88392610859056531
-0.43629224838006497
-0.04702316947074278
-0.00911952767858486
-0.67144858527581130
-0.15611038641193398
-1.40322236522268651
1.20905535433485412
-1.32492135013363299
-0.14336945174362528
1.49787685790066472
1.41454178648732176
0.07465664554838439
0.89476173659481617
0.95845090102225483
-0.63818895356754968
1.40817153308236231
0.48720439714482905
-0.54044055197723628
0.24806253252062210
1.00573573466638067
-0.74510915437179481
-0.70556586014171818
0.54503544741084586
0.66677206332949890
1.09394383488524460
0.37342244828825932
-0.39057854166189138
1.05832092331544381
-0.50442768550214312
1.42900611579344572
-1.33413095960169703
1.07634504337205561
0.13777736654899195
-0.09100949329664479
-0.62708655286955761
0.40703196027997024
-1.34115747378106143
-0.88751263623547738
1.32709872188688727
-1.24273609684641850
-0.92781292947674976
-1.30453851622961681
-1.38979196983526632
0.64910410627782311
0.99352469566453383
-0.00718741330844601
0.43575427019327828
-1.23189694994244214
-0.40468427153861142
-1.23767173339958036
-0.45810798491325844
-0.19966077870257498
-0.34036198340518004
0.88634134411833654
-0.97759505509706368
-1.33044121118305125
0.73841783892666191
0.34620167732384061
-0.76203683218612284
1.37439512904945049
-1.42101236631985239
-0.81816675791644222
0.84643169862649015
0.97221538814729680
0.15636228674838479
1.34021625781968323
1.45323917678588810
-1.23481612787622219
-0.88176533176848138
0.75854958327901878
-0.83508601551697015
0.16634713747275184
0.37448331583105121
1.37619309234585052
0.63074162566106029
-0.61269944859786463
1.35584634779098434
-0.51527836708685726
-0.73725836302599279
1.12173735006119979
0.65302217581052158
0.04667698570624073
0.48016521397846962
-0.00353013219880604
-0.06834670598274686
0.64236644783937702
-0.04074280334385164
0.54332461505074259
1.07524826304689780
1.41176407833009510
1.23859981338972891
1.32844003106135067
-0.34855864049616425
-0.65093442219738507
-0.98694834529112208
0.59083232822745024
0.50407314008926429
-0.79730332743789001
0.87915844804559962
-1.21762893014493145
0.26794619982900264
-1.16215682567545686
-1.22576594094856284
1.37514741209335623
1.25277961550378780
-0.10737546805146367
0.32913168299025547
-0.24372094745345546
-0.99837769941068577
-0.95845101264409815
0.64136624659796349
0.28982415374709836
0.40435420358122437
-0.89943273684357772
-0.87819229244922170
-0.71107978853507048
-0.02565662983718456
1.39039440812696724
0.78985615966144074
-1.15710148143048763
0.69065721779409450
1.34494294741570530
1.35264593095893049
0.18125462730050135
-0.53069557528959554
0.16573156724362087
-1.49016123514867549
-1.35895855934409893
-0.94119270988328474
0.26979845940035002
0.40721655975478188
1.09290702274080087
-0.09207033377276622
0.33670210817212881
-0.65076911544892246
1.25799821478625584
-0.56839949368778997
1.43428056419278382
-1.08434617691793456
1.45317251093769895
1.01197343143015006
0.53315622237753180
-1.27590245189120477
0.76081861122063210
1.05723975936472669
-0.23929752148420821
0.11699327160525241
0.95946852090344792
0.23920890046456825
0.41860085336328579
-0.83883204142158552
-0.66916893047559600
0.71235866823908112
-0.67256481842540261
-0.14197635671225023
0.01645904077829641
-0.02540832270965068
-1.09168981213255667
-1.48507569378680948
-0.63136607969821434
0.01960388103867316
-1.03225153330514408
1.36651728638229475
-0.40520569812419427
1.41484436263459012
-1.41202630908240279
-1.08344582848702520
-0.78832126465899921
1.30459828482152895
0.93848773846413103
0.40090576548229734
-1.40548232308636312
0.23592422369074983
-0.55810842698103613
0.70892256273285359
1.17430722212702898
0.99963424261821310
-0.70836661686516644
-0.00885004941178561
-0.61318745748789927
-1.36834386798788010
-1.27230406914728289
1.23258493896017685
0.66126939174003740
-1.07979230921159086
1.31999965715496237
0.24126968560542889
-1.22236056405188798
1.41654766722639835
-0.22466680001245862
0.25118262540087105
-1.38133780627291625
-0.28577761114079031
0.65462820426093615
1.12616723652735495
-0.04215146889978164
-1.35115382705852860
0.83891641953069496
-0.31814552192181728
-1.46235530517514278
0.72278319412281122
0.80248010243239887
1.47306853242413283
0.30354622201465525
-0.95168332690612412
1.20088991584959914
-0.64330915557982449
-1.16347834206346867
1.07493834221642492
0.44761025289661854
-0.55432161535277091
0.62108123322450148
-0.27878128724567097
0.90304891381716368
-0.69742734652420491
0.11784719240680516
-1.49590965902207951
0.48611722644647198
-1.48435768857822525
1.20336666034137085
-0.97411390518059404
-1.12942300016966790
0.04886678961321279
0.73849466850358358
-1.44530977300274288
-0.03214542460443805
-0.91042951193741140
-0.96512054565734473
-0.65529844521871772
-1.30217035031699435
1.14067268874537309
1.07001283924181112
-0.25849346549912322
0.19223725475857917
0.90253495598691635
1.31237986738748691
-1.34640581955148075
-0.94988891738615233
-0.67097809337124881
-0.89003924557168390
0.33984862353630357
-0.52352621313849346
0.86404319987256584
-0.15070077461384204
0.76988260584565704
1.04368177864354750
-1.40729817849227334
-1.39777942956873913
-0.84370521211053762
0.97206965308655835
-0.68610425861622559
-0.36632526047952757
-1.14900100835737007
-0.53039987857313176
-1.00601827889351947
1.33761273505942224
1.49031785975949127
0.32900005448895653
0.17356355791466246
1.15400450768795149
1.48216007233677116
-0.80547440934712566
-0.52939617048053933
-0.57513508686954740
0.54176587861321057
-0.88225830760051027
1.33271349461420319
1.42661455340326815
-0.24757272796602567
1.14226473654101568
-0.24588926811586220
-0.49968639942449866
0.63897525580531511
-0.78188317547586050
-1.44430743098048220
-0.66669321339637599
0.90201615467020790
-0.62941095323165730
0.27006039640090279
-1.50133042504419500
-1.13560132108274803
-0.14205917240491281
-1.01336948361163093
-0.49517187355111614
-0.69366885072575435
-0.26858365984407367
1.41297055004378125
1.34414854022330910
0.73669322367198153
0.06138968077666065
0.24659828707009207
0.23472849848084310
0.46388227433308710
1.23247985961553819
-0.38418229694898548
0.91341126123378835
-0.07440158374506825
-0.65560806975869668
-1.44188181274644855
0.36528158406186478
0.54597327421945441
-0.23268082186638370
0.65557856566893635
-0.40558012211914757
0.89087403939671428
1.13276987041440047
-0.76735508347774972
-0.01927486128830723
0.84997561988601311
-0.25690878436591569
-1.34021124322666174
-0.15544297396872223
-0.27075375547520453
0.54368571920626474
0.61346927094201631
-1.05045630106455645
-0.02802353799960666
0.26202455156351712
-0.30651020483398794
-1.40702062015198859
-0.77539268141790640
-0.25911779196864265
0.03637836618201611
-1.39886792556308470
0.64530886936264942
-1.12938084278648199
-1.12695485347669555
-0.61095455924566233
-0.59236238921683793
-0.95327662408322611
-1.03441896358167118
-1.29718732437313955
-0.34861246731638207
0.42490062909887133
-1.43423521907370621
0.39961391980731387
-0.59127221088736792
1.22223460273953233
1.16886340108962372
-0.17371052866906997
-0.71681312612798864
-1.00215192634188366
-0.42460396367442677
1.09426915212323705
0.00279855232484368
0.64469918350272759
0.85777966217448309
-1.44997602533282133
-0.34777433954954073
-1.11681990123193708
0.39213036484714214
-0.98476989540328663
-0.93875626397368328
-0.66061709752946474
-0.28698894321703700
-1.46640903909885822
0.12781956155002130
0.94687245965894240
-0.17216718952251703
-1.47998888810529450
-0.61172222911071972
-1.30067387769360132
-0.44027781563225105
-1.45096685257708469
-1.10678819553534580
-0.63126348280436140
-0.16042055179222892
-0.23449043843837822
1.36131681694567752
-0.18726453434417223
-0.53033779086564958
1.36255890678467972
-0.56089626090995548
0.44007024253643778
0.90996393366642814
0.79234928332747434
0.76291875883895754
-0.53455188038886803
-0.51174556830334872
0.56709846453695445
0.94460589486220514
-1.48310199618343708
-1.53516654677402342
0.16104349631771167
-0.45502465629743050
1.16577548258365704
1.22707957030033432
-0.98239745883124796
-0.47457320385685631
-0.04124024931060059
-0.95899145962574339
1.48982401882950621
-0.56314339430170579
-1.12524486606771856
-0.13847166661584923
1.42355514058149279
1.40723227658157857
-1.21077399197667179
-0.23958527999551699
-0.80364002018061964
-0.53181156528244455
0.77687099504051194
-1.01293053037436165
-0.40901770093603707
-1.30901980082713498
0.78269290392769930
-0.58464360483058886
-1.27326426193029785
-0.55152944675815219
1.14528486171718713
-0.44394836304417334
1.28547507515089410
1.31029716892525672
0.79782649876396627
-1.17699832834330120
-1.39512458714916487
1.23438019084000117
-0.05553973596182617
1.36324689677934274
-0.36011099942010438
-0.85182207396844245
0.50778779465615798
-0.51495694680598225
-0.23457204768462225
-1.44027961114350878
0.85814889907083858
-1.00100221301024916
-1.20169114453834913
-0.75496763493556973
-0.16365541956397611
-0.87370002421484783
0.79551049174320321
0.91162170829869649
0.23881194123078156
-0.75134216338018134
0.78319676963326845
-0.23056457676174685
0.83454605270428062
-0.03743593412719257
1.16778918083345529
-1.27756276998204998
0.40099104906509320
0.69264635036179178
-0.14401888568399338
0.79950559285998490
-0.68050866060070991
0.56066070649929256
0.57970022333396531
1.04593336412624893
0.07004775146101100
0.71684982919841411
-1.12677758464579569
-1.33767551618158964
-1.30617839210159437
-0.30832856672636783
-0.51248494160084412
0.36590868082536743
-0.89305062751937214
1.00403843145080307
0.25798642283809270
0.11922842352310450
-0.58395511198823047
0.21335793861025204
-0.35796723129401742
-0.70178651062379749
0.77756811802983605
0.25236172657448669
0.09914691017961084
0.65809397272775827
-0.21614288382056460
0.54329375213321274
1.00150785754441252
-0.21248658702454593
-0.70066846082901812
0.52633372161400294
1.42485672992579970
-0.40048560918217008
-0.64641940956010591
0.33107440460796345
-0.29216727211264332
1.48871976013164864
-0.80029464350022106
0.46473562904263654
-0.92101392605297405
-1.11383622172954100
-0.53865043996760531
0.62824232280149039
1.20959366240437194
0.56651092623568089
-0.65274001566945727
-0.58068081649960135
-0.54427605913100185
-0.59934904674790002
1.36699920133305630
0.28772629686553802
0.42403426108420622
0.08281261957350772
-0.69532968550675034
-0.87605901869809899
0.90168510836937654
-0.83059352932387764
0.82387506360526674
-1.49754283160321422
-0.22135945081328870
-1.26587931030853262
-0.37846664589556467
-0.83814801781061954
0.46206996661597072
1.33513834925294805
-1.17092495564849997
0.17781620356019887
-0.77994627286324469
-0.42304523354131690
0.65801158308248497
1.01990221869240960
-0.35063951556217071
0.01428825700716510
-0.67958249953975591
0.37360845344067506
1.45067500184110254
-0.03367644876026512
-0.95115291317656148
-0.07980784782514000
1.51527712524576552
0.15097592367667406
0.62652389460608426
0.41949587230513813
0.81677526559655500
-1.10122949954318616
-0.86187044787263800
-1.34851249340360324
-0.33765369288112218
-0.63351809330647813
0.18127697609457966
-1.54602589714169403
0.46993144110640295
0.27471671678677129
-0.42806212694718682
0.19260079065740657
0.84310094522153867
-1.09233659914911296
1.21240547320606140
-0.49109162283454061
-1.39557040611005778
0.03323127364585627
0.72809223577947835
-0.11431250647127598
-1.25855807499629768
1.32718360941210234
-0.19030236994745456
-0.94559745190169964
-1.48418857982626662
-0.97723816658846108
-0.77252364993029943
1.41286717789572691
-1.43811728390260773
-1.22450773426607351
1.24438801480287897
-0.58645096956717213
-1.18767311812672904
1.27405532157306101
-0.43352696038704486
-0.80189725846032522
-0.18014145354865505
1.03316583387445404
0.52870641659777506
1.07183567578425532
0.09981862120340201
0.98584376839475096
0.21234491563405569
-0.91003767406629388
1.22099505131706554
-0.45203994207383202
-0.17749053691980093
-1.34955310526104832
-0.43491023438379156
-0.39399853678388114
1.31825657425445786
-1.12538169896264528
-0.96442557690547659
0.08437433493360150
0.86494027370218540
-0.83311144512077384
0.33589452332215480
-1.43205822431156204
-0.76293281268518209
1.26618519862760692
0.21531316661751079
-0.02662406767664056
0.87209477383978373
1.21440648437237386
0.84508429669536678
-0.88340593635292819
-0.59342838193249614
-0.91595467912234507
0.27520478817903493
-0.75018360700846698
-1.42559519457938810
-0.89765994511856073
0.83370498612814625
0.81523450871658976
1.24123923489427290
-0.39618499525096096
0.04661843791901577
-0.92456283087192759
1.46644873773616990
1.04521918005460579
-0.27668375063244760
-1.14439540162527331
0.93198654005555370
-0.95861402729805112
-0.41276197153254673
-0.06548717467294338
-1.00491450350666867
-0.86402756220349641
0.91519133248331808
1.12653898664928231
-0.13806047368741059
-0.83739672568576651
0.25090497626474129
1.01569808149458241
0.50066620230685777
-1.20773372888741970
-0.62409662717443171
-0.07078687582429781
0.77734896241961182
-1.15506861050353993
0.40559368456879802
-0.67046319432618506
-0.83680375243333660
0.09422023899484570
-0.53933973412833669
0.45601007682759181
0.49877237925365653
1.26933542788836462
0.55937303937549776
1.48794467590160973
-0.94239516827482217
-1.12517601313324311
1.46041516846903274
1.12749276882478400
-0.77224863911895558
-1.29527051925527092
-0.35611209353415840
-1.01895610993647456
-0.74291198630011612
0.70258738088338457
1.46863759597106314
1.04868269000246195
0.89064417652900507
-1.39294336989338219
-0.99460331760308363
-0.90813726964391395
-0.11579193569563490
-1.18630693157532874
-0.39221581823718682
0.43075936595391423
0.58583577987298185
-0.53307196892929087
-0.66209197040362266
1.40779767670097478
0.04973082515256637
0.18442799164950335
1.23845691630178290
0.30637440851143111
0.23217807480993599
-1.22044275426805071
-0.03072073738644434
-0.91799726633651979
0.75106945542769799
1.19349299063411407
1.47483985594554512
-0.98775170652957711
-0.57704499427526013
1.01529816658146510
-0.39234109455457872
-1.17666619992012711
-0.61830189407276892
-0.58163558206216182
1.25203052890321542
-1.44104520196408359
-1.42456675366517760
-0.99492887079369330
-0.56042839618845275
-0.79741417672440962
-0.93072916229148173
0.42443905945421451
0.97725347421529873
0.15129244426530580
0.23567890232354000
1.50424381884176728
-0.20200118198687542
-1.23159598139057325
0.61168177705559046
-0.44308518497451921
-0.93289475303337788
-0.29321625528212492
1.28144136589061941
0.69637617057771573
0.16572898739189046
-0.36641430853005130
-0.23582471047427822
-1.07811676633348386
1.10692395816456624
1.45039204876201788
0.26300263694734427
0.52315704621132719
1.07089788097354810
1.13477943267083181
0.02690798790307158
0.79268885342255513
-0.24120489982466337
-0.43541401776509958
0.56595432985757144
-1.37443904680409767
1.20428866098831922
0.44592493727945653
-0.06975726631237311
1.07641895526334186
-0.53748604221137075
1.20876064714468034
-1.36272537794164705
0.86910219846427395
-0.78558534439097483
-1.27933677703125337
0.84306405594358580
-0.96459430401901658
-1.08435857290315485
-0.66255518056058604
0.21654386548203788
0.77429044852934259
-1.00257323251937569
-1.05784763215875799
0.12918678338491527
-0.46760337594962825
0.75059808671874306
1.38556030576563982
1.20439486392408934
0.30426446263108664
-1.35919490873588167
-1.07645870361484919
-1.49399376644488546
-0.44913282955914524
-1.52848619657615425
0.94801683209692511
0.20780970579217040
-0.74221330548942510
0.03374513765060282
0.41029359106162844
-0.13283793295659113
-1.33043442886731911
-0.11821635825036803
1.08407203649919293
0.08479719511604360
-1.28832896282662324
-0.79273494160388380
1.00001677313132453
-0.45309804797492381
0.27737288349922706
-0.29686388354221788
-0.94934289174863640
-1.02255282046666118
0.93429392433529457
0.92101946627981646
-0.16485712178523157
-0.52859652927378642
-0.78400886483040433
-1.15671135097584510
0.84870216182465974
-0.05558145141615781
0.32782293328266437
-0.93652741396835160
0.98132122869463501
-0.38312247697329477
-1.48273392863805453
1.31227981197674959
-0.81465525002381189
0.64185276257214041
-0.22299033397591053
0.88516982418273737
1.39984991735528963
0.56289189059993383
1.37433097374492674
-0.26241293097513357
0.03653879691934547
1.07871254461214239
-1.38644358689593883
1.13853411859259146
-0.11701987130254182
-0.25312013140402922
1.47848485151792719
0.79894346062661159
1.25375517212664245
-1.31414321983340998
-0.65637074754020375
-0.15666670632654331
-0.21659728075287421
-1.08207898169859518
0.76731244757855399
-1.36595778822349745
-0.06921845800926875
-1.47059717093931130
0.58515160987246218
-1.22719292889846576
-0.99829369495976672
0.49090972750252382
0.22008346009980823
0.80515582421547982
-0.21683180661005722
0.26855569827442716
1.40605695721543555
0.78924247255070767
0.60366337466508468
-0.27006682012677241
-1.42219099916181202
-0.97809547485441584
0.58938676787213540
0.97838027477619371
-0.13063440586218658
1.12801850501527889
1.15046315566920154
-0.86459510652371541
1.42945664837762521
-0.91563146819102359
0.44659358863982745
-0.99508139282898067
-1.07006938210016878
-1.10122729816464404
-1.05947507589159029
0.31643277685580790
0.43721850452528832
-0.52909225805759885
0.37011672532979895
-1.13547984731370688
0.09748252038687542
0.00858482826940523
-0.00114246583409113
0.69646814188847039
0.05208971505722965
-0.71346792333844400
-1.24057546081323355
0.43933423733095628
0.04339348590278339
-0.72516413130503632
-1.27527919184160266
0.36714312980048636
0.43499196566589193
0.43203820997797981
0.65712083667828303
-1.09070203233935903
-0.27094154539973975
1.18336070130878168
-1.40424461236790243
0.18465671503983525
1.02158756590134048
-0.11474858665164252
-0.17998840411156081
-0.61950198812314428
0.37506222459236083
-1.46314417254475115
1.18317106843123376
0.48205176036252378
0.70611392651064364
1.15266041025150279
-0.35077721824866859
0.80755532621016402
-0.93030322011273592
-0.92319712570570023
0.93764527445066570
0.16009423959668909
-0.57307486302923893
1.20659529323843584
1.39519274722695408
0.65502201650151581
1.13733636515231495
0.85169910004092675
-0.33280503409027107
0.42712084407792522
-0.58435011069701848
0.15580643300554731
0.39053954532073837
-1.07602139957991372
-1.29955880372157484
1.47931161683289991
0.46651699534048774
-1.32563946265096733
-0.97070747508781308
-0.49533087763135447
-0.72546641583887750
-1.37621825930470520
0.90429540786161200
-0.02778084028533486
1.47267633755994010
0.91785220738573770
0.34648896810379104
1.04181763389222337
0.96518127117895303
-1.34956610836730784
-0.48721461136436423
0.82369684128401477
0.14697241338598685
0.44866205141478216
-1.42437511318108756
-1.47657288264025444
0.25816735621603909
0.50246320923673993
-0.62737890308354494
0.37011743161548427
-1.16680898153388712
0.64190438666996830
0.19542583194360810
1.30630081613601612
1.14027634575602232
-1.10224138946208705
0.66857928138151890
1.07567048609331462
0.91696963297404666
-0.90488105763087434
0.57499207419992793
-1.05830578168879708
0.52669688487973698
0.15623780665306108
1.34673995130109403
0.08345760318645853
0.68024199791720519
0.18601366084145454
-0.02383432344764443
-0.48736842650541984
0.85162503897906527
-1.03859412222865033
0.67997682168595641
-1.39899038281477095
-0.26046235632430026
-1.21870656363588448
0.88811213836182934
1.03980538688253810
-1.20877860598407882
0.79057306885401291
0.36243089747393115
-0.09730872049530254
-1.12299773646046197
-0.84704411319526063
-0.32994434487426882
-0.87226655333970027
1.15739950414960169
-1.32680602605690212
0.75378698770605057
-1.21772394542791673
0.12193412387547052
-0.09090953796172749
-0.96785353647794403
0.90920872350014925
0.45531246511027029
0.92891916678116437
-1.35073091641862497
0.18905892542675420
-0.17692583619863642
1.09378418306020686
-0.41323384032304517
0.93569480789977899
-1.17614260835103601
1.34161603179264000
0.33652529616389565
0.09370187824345313
-0.78700170689248916
0.16215476873941673
0.67541014678763733
0.47964219248599227
-0.74592139892845943
0.78537109682813799
1.27119386486547481
1.15524163904437849
1.03193802540120294
1.00780760954813831
1.00989867602996175
-1.22296714149742769
-0.59863914569084609
-0.55592914313243336
0.13905976230534689
1.44472713044879941
-0.03424540950255506
0.53344420509814727
-0.68378795175396667
0.03738548827855206
0.64960264853172045
0.58189713387626252
-0.38567102893398963
1.07545960950914199
1.21986106313314480
0.43976540315204038
-1.35136642179361188
-0.88110474095431535
-0.89007460448548958
0.94486105112815344
-0.84130397425740000
-1.10078112391316640
0.66820000019841774
-0.80002811069614899
0.83343509495235113
-0.01018962533620943
-0.75103303977632008
0.70177192578908609
0.13455332702930028
0.67332065218390147
-0.73461320191960211
0.17383448350760447
0.82729175746844252
0.55214420218613691
0.03594893643676863
-1.11528417249411915
-0.65881232784172372
0.54839644881659300
0.90627418925728520
-0.16310794599509618
-1.29762506314436066
0.48697746997362634
1.15962547060372256
-0.99948544615548807
-0.05224539395298654
-0.94157856697044717
-0.64599591519495247
0.72614560409609386
-0.02161566486294910
1.42612003862956338
1.33598017781369660
0.87616275905372076
1.22402175914583600
-0.63481872720918286
1.22015581809840135
-1.02040700196786527
0.80851334347012049
0.37848124992864218
-0.88275394399897877
-0.45029674459508023
-0.71560806608777006
-1.37003099619691815
-0.77139922835354857
0.47309760886827279
-1.35606653526533916
-1.38283354709977724
0.54104774695999047
-1.40241888738652620
-0.75850081863272412
-1.41089538384729285
1.42921083231176516
-0.56634696406942175
-0.70977059994082192
-1.26967398473625326
0.22362267771829517
1.41314995894077278
-0.91573466511891422
-0.93824788197159648
-1.22649192824678832
0.47321049673219012
-0.31825235392108608
0.93483992122275594
1.31635561075604768
-0.74762278387592140
1.43749935563826803
-1.32025670698011433
1.33806714069513411
1.12584031721346589
0.81543681536145662
0.30076176023387968
1.37726299733693591
0.82675747961300894
0.42537194573116083
0.99378596999499036
0.72546492869526025
1.49443699944063213
-0.01112629032090049
-1.39257629769394731
0.90348515257923467
-1.27941869260138130
0.10646987862750931
-0.24506714682212910
0.01389884142577841
1.03839749588779173
0.01669215410449766
-1.51872432916894895
-1.44043569809015271
-1.17400454583907643
0.08977099529257382
-0.47512480213976438
-1.38467760177162358
-0.56188833976607566
1.00978753346202699
-1.44989577930549052
-0.27385644805095677
-0.44232327948100181
-1.41371610625114785
0.24957875347222169
-0.92440945665581664
0.25254965543740365
-1.14168417198380046
0.50204283391316162
-0.07332437958962082
1.35322422767746753
-0.03713585795085805
-0.16915472155584085
-1.28601367412850864
0.73449521103487481
-0.77102500493778214
-0.97232124234984185
0.26196370196838414
0.92909498523038181
1.26603664473767585
0.83679892547989965
-0.66326551150290480
0.03544064194765970
-0.98101861394965784
0.32444472573976452
0.46279643628996614
-0.56941907014732951
-0.58703393842066909
-0.12801979937321825
-0.37894538207530498
0.41666868423461223
1.10625314728824997
-1.47012418542704615
-0.39811164606669275
0.15595230907876104
0.06412394630475862
1.27314373303824402
-1.07543251970066112
0.41585397428629456
0.13432531438324766
-0.51256189596384383
0.44247078533031314
1.23490069680649506
-0.64709442663668926
-0.95712778793035747
0.73785052709444465
0.10366268271015971
-0.21750968430640427
1.11673491580500772
-1.23929223189796822
-0.19117136889257472
-1.06365115528374798
-0.09334104036289635
0.74690506452963046
0.93592420969901513
-0.84692623556083635
1.22015007450542590
-0.75367313056009488
0.08463659841263736
0.00067712175706810
-1.50949551279824035
0.59989086984996931
0.63639232626171782
0.54350012069853204
0.96248913592234731
-0.58368935678147515
-1.22704806874934924
-0.78378520526416251
-1.42102899589649434
-0.20891390224204320
1.02020696366709207
-1.29454409703768869
-0.51090367784126167
0.24089251078424687
-0.85735074652528620
-1.26937747034906456
1.15521262424058357
-0.32089529508055664
-0.57827315463637885
1.26965229467891971
0.15179918239546306
-0.91040290718718397
-1.35715675957972692
-0.08943518423159964
-0.88615109275159698
-0.16200694025986317
-0.26994995571161912
-0.97165105617241265
1.02731579952275465
0.23311745280238619
0.90533449320231774
0.19726115355319443
0.41221850725582809
-1.32951993548011194
-1.02093480167612904
-1.29005943481379859
1.31623438720810970
1.09977443372863060
-1.46381145904503840
-0.59108379178548509
-0.73577343982869048
0.43910541801676028
-1.38092654966918427
0.99035765470908155
0.64804221912061399
-0.34125644975980562
0.31292773282022257
-1.12759443404109927
-0.17411632027878363
-0.53350813534986430
0.36933159426689155
-0.45389382334704781
0.61349458020011605
0.41620718831676984
1.43736275694862337
0.73723422054941656
1.39178343700336793
-1.35922542253266321
0.34953250494574362
1.11940236789299741
0.27849521184222076
0.79685491140681119
-0.12672333369579578
-0.61145085088521833
1.00441908808856195
-0.13524850562922977
1.41425083044054167
0.32736466232020295
0.00708672895121675
-1.38220803133523229
-1.32786961148131910
-0.29853685298610133
-0.82286183607151764
-0.70211326025834275
0.75197817630112451
-0.67025324509786888
-1.33540426862107964
-0.74462260915038125
1.05277989000520567
-0.32057418974685870
1.14277126728487710
-0.80802871567399337
0.10855431992579712
-1.03069966364902466
1.06398204999929202
0.25359745160339942
-0.83108741087083449
0.25850961573772940
1.11872560960601697
0.74756826577454771
0.81639779971360782
0.99770643714164353
-0.38435841449815356
-0.57226054668656556
-0.98031418119199643
-0.15778354685977139
1.26024414359162762
-1.26048002946462967
1.39187282669089796
0.97030542173464052
0.66324534420909331
-0.44925261376695375
-0.34697688848423114
0.65475192456438169
0.63436206054132860
-0.77496971493806266
-0.81632298247440993
0.55470930963137688
-1.09716750529737572
-0.56321411347136352
0.75557038874283022
1.07777127572771314
0.11621676110879244
-0.53627121063963767
-1.46650249571587765
-1.47610352959523361
0.51394838737535820
1.18337788378052178
0.08466734249053749
-1.19741663179958668
-0.92802768310223083
0.42373411840086089
-0.66782441513977653
-1.12616331871617903
-0.30708971286246883
-1.31597052546712701
-0.43399382732715436
-0.84211892577642844
0.70352756865198485
-0.08330761555493682
-0.89812023642459415
0.11734923993521804
1.32676569171271219
1.44868091876107585
-0.44383030729500794
-0.06483733339998235
-0.34210548734159246
1.41238990957045774
-1.17832633589844971
-0.39172473172205818
-1.23196043355338158
0.56468153851302494
-1.31932676155560769
-0.03781051292941606
0.64373099663163635
-0.38302163883837737
1.27578242364685490
0.20528591683200048
-1.35525918890250896
0.16682375391882243
1.27437748514589799
-0.81258053997618274
-1.49334412441527942
1.47236913513468859
-0.72206031289664485
-0.45675610435963726
-0.98318386286487525
0.14108867012440063
1.31161506012872309
1.22799871527325810
0.45419696899858730
-0.10011026164158361
-0.32966440229712757
0.06851868345404911
-1.36010511999256711
0.41085626830806637
-0.42258121887245381
1.14478728616326442
-1.12421049702184495
0.14647328228163511
0.68443056640372268
0.65794380947720932
0.35905008764942142
0.81113044459860029
0.34434192846213096
1.12500100521479030
1.02234645792571510
0.40345003618658204
1.23300157544715594
1.43469277869973522
-0.63173777016576305
1.07457027389442428
0.68006774977456030
-0.01098112191848760
-1.32450818990493957
1.04969027937408277
-1.12631246769191917
-1.50327974403560871
-1.42176227850635617
-0.96183936605526621
0.63525565977383402
1.23206353454039164
0.84609104147094649
-0.39567350503924031
-1.23514274255608059
0.76572489135461363
-0.12872853209284937
1.29405407241240678
-0.29882090409125545
-1.13182264022137113
0.50500144428190485
-0.23700878073113621
1.08214608327109207
1.10091116863133776
-0.55661232082252010
0.28656555063429395
-0.67331641470290393
0.38740653426049743
-0.96238115029252003
0.89382902576769019
-1.21607195690013903
0.83733322928310261
0.54257016739287789
0.14212309511340757
-0.03680474419706660
0.37548459612314544
1.05382656296836719
1.26688631076999392
0.91427180813817566
1.47739000219107441
-0.55632781794030539
0.95153391531671705
-0.66797255051372528
0.70384036584208820
1.35890655769739155
0.75115283632420560
-0.52597838166551414
1.02383880564568064
-1.39215903536734564
0.43353648492835339
-0.95186518547924903
-1.47467627201097073
0.68667314945264057
-1.08728116796222052
-0.64247453819489531
-0.19280772069350946
-0.29308018988331386
-0.52386460722821049
-1.26346136650005092
-1.16305335879987282
-0.66882953788737975
-1.06549730657682185
-0.48568043872921157
-1.33396938391855069
-0.36212838804008357
1.09684549204054749
-0.28621297272718099
-0.19942274223421616
1.45183860891629357
-0.48862498595300030
-1.18202127021322245
-0.28738831589200758
-0.09526691543201608
-0.38847098205168834
1.28868719753921090
-0.42836212256323764
0.64236646301470790
-0.55017645079127819
-0.06693485316254476
0.23285401572818301
1.30303957016317185
1.15062007411963174
0.88498646149626981
0.11621725712666235
-0.53394347989237911
-1.08940616806270740
-0.52936108578181784
0.20787211057198765
0.41909564469784488
0.02198051545107332
-0.85734291172400001
-0.65739789294738982
-0.88835145770559332
-0.26234692791181702
0.67625282327518965
1.16101946817735779
-0.32691106527601516
0.43944599238629301
0.74260620782726960
1.40040203650453376
-1.15253572299974483
-0.77893719311616949
-0.28624549690505319
-1.44712260661228753
0.62253957571412799
0.07401680477563356
0.67150842953316414
-0.48978335029063597
-0.85074915891448377
-0.07313081779893874
-1.30875886270894015
0.31839083231961507
0.11817125983538528
0.49186947187542657
0.67746875712902677
0.18496826991258547
1.44934676319048705
1.28771409812209736
1.37713845350806219
0.52154850599690805
-0.73384063361542073
0.04491688928680390
-1.22168632798453780
-1.28550515854998215
0.44923776293577167
-0.67679544682951265
0.61932891025877168
0.92815663817749050
0.89742432967966923
-1.26875795000361280
-0.67233472075752765
1.19972047286248529
-0.52565598110051392
0.95173152933636729
-0.03640671817176389
0.02683403991721012
-0.74802493532770875
-1.49075525965055955
-1.43691004642955766
0.37460416076470054
-1.43298700029398840
-1.20851547665001524
-1.29066084047076002
-0.03631171673393746
0.74428856489881867
-0.09101097619187952
1.00244591816518325
-1.00467144288097554
0.20058393231640814
0.01453962455004815
-0.36947848241543574
0.02403648483869291
0.95939438510604302
-0.59469332015492216
0.42759979896042677
-0.81009802555669264
0.56576463485822326
-0.16905140353223255
0.79206695163509222
0.09833948986179014
-0.79473885300808877
0.43291756404018494
-1.15604564334534365
-1.33816913226922818
-1.33420096401301480
-0.65237376969826122
-0.17779354973440725
-1.23875006655589104
0.11582111922160544
-1.19693275446636815
-1.36028960516672881
-0.46219421030622826
-0.33824760817130373
0.54973983210328004
1.04533917382549335
-0.36148745469539983
1.42643191321060159
1.17638160775413070
1.21676128091467128
1.49737673284806672
-1.08803906163952213
0.07668944427398580
0.83579160178162648
0.86728358414056472
-0.22412216270022989
-1.37972948765491910
0.31616503090571063
0.87701448454480024
0.18680514781480276
0.43771954992705181
0.46908646419651256
1.16739236979217020
0.61349782314345869
1.05853474858158880
-1.31634399187511408
-0.76860752200587956
0.08753402139773950
1.14313453508290230
1.23880814089750024
-0.37498037940800927
-0.44301694410691916
0.56554175346157753
-0.72320693697909932
-0.63929606675933937
0.31203576999730681
-1.11238154163846903
0.94160921014720456
-0.47850869314806427
0.91481031147787883
0.97854102874468751
0.34670605341299177
0.13547317555495314
0.02500075277869705
-0.62829487981554999
-0.18020099331177086
-1.07643173474099751
-0.86703891272431399
-0.99903694508626917
0.54183656784756407
0.97597577428612936
-0.52259588661430434
1.39023630865821279
1.07454403834486789
-0.30485121633178625
-0.20029039558751979
1.57114086246435436
0.69048966318070448
-0.13700671205150261
-1.38963039340187833
1.07156982887707897
-1.05607403266519317
1.24719731507995002
-1.47573619403392353
1.20768853079007132
0.73170629116243735
0.46816580834987637
1.27121294902429405
0.21018729171819053
0.75181028735449373
0.74091526549261777
0.56300390829590163
1.45196279135142303
-1.02398602067569700
-0.20330356621319370
-0.05135415799533128
0.11441892396871510
0.64587969485134178
1.20534400723500590
0.33073654904714661
1.26666728126376649
-0.11436880975712596
0.94734356838692524
0.67963506221912529
-0.04402773747085572
-0.59087965845475576
-0.07825971298414089
1.02572800218797333
-0.42229884812971263
-0.96441157339425099
-0.46221878079272644
-0.37762734245026230
0.90859515130911239
0.98477723369488646
-0.75314201594856867
-0.18807491001611187
-0.56817260481282572
-1.05997287558767295
-0.07325071468738131
0.85113748320933824
-0.00818344945687284
0.53181997402355008
-1.11561052171290886
-0.93705566606285573
-1.21011940924490391
-1.26092707449791397
1.07345811429401694
-0.89596683023401102
-0.66509344281697602
0.32970522450609274
0.35948829490879869
-0.66308288856480135
0.80025092294550826
0.65292499865396969
-0.10986775667297179
-0.97867805555576182
-0.47448681748055999
-1.07698516984499437
0.77582612176792420
-0.71484014786527927
0.32046193083883445
-0.86986048193297305
-1.29044807470344325
1.27542773023082590
-1.11888273130014348
-0.03308364365755696
0.07806242705458685
0.79790440000629936
-0.05656029497495124
-1.36516393984366058
-0.11628333591111607
1.25820316598493931
1.26971398508742594
-0.63030905528415471
-1.32898249143273617
0.64038961901184177
-0.05097386109723413
-0.13433967657500662
0.77146428453390248
0.00792584931865977
-1.51410645378600162
0.63870804840826467
-0.30407648145429095
-0.92474269050495905
0.46783182272897189
-1.28086631636522386
-0.50448267845186900
1.46203210153930829
0.31600819218681708
0.88895562082795487
-0.40759835628817104
0.09485188753208348
-1.27078220544006104
1.22193551161959091
-0.73334466042241753
1.46796959071754940
-1.31737844260374892
-0.29034513649224841
-0.35306242006319616
-1.43803104414056948
-0.37591076202161422
0.05931989785671549
-0.71236026759755122
-1.00634461363305960
1.30844337219108664
0.12090727882625676
-1.10477721473114321
1.44977571933217275
0.37347549865902263
1.02212033262736024
-0.09213485338902939
-0.36281312368677648
1.05049659903506898
-1.20741832417622486
0.55549414525839624
-0.35942318343678370
-0.81453350326193574
-1.41137037659618580
0.76718699805141821
-1.20982952958859435
0.63068485523152551
1.11284594767948875
0.04351110339499513
-0.36591795598437887
1.50393111242418875
-0.23389379715907574
-0.94064292358152868
-1.37173244661970584
-0.96299841296827104
0.42662551409268457
-0.51822130576069414
0.27609243240096459
0.74836719214747460
-1.37806013469629507
0.14738395956948022
-0.54448228499309204
0.04048558016026980
-0.76461368197387014
0.72711091399814987
-0.59494700559595159
0.71808191801348120
0.44763803706919486
-0.50157973579787218
-1.00985971811181918
0.59637427656021003
-0.42265336460245251
-1.28738880904600905
-0.00374157287394223
0.47375765033069689
-1.47003080905187722
-0.98215440668106990
-0.22017371722710816
1.38366316138765755
0.69891819690207346
-0.83469287735612474
-0.87551391728447892
-0.40871208300597789
0.26178737176983319
-0.00096005427123602
0.99515608481982376
0.00844604075047690
-1.24310142522734535
0.17191951372843789
-0.50771574011739429
0.20062971056988230
0.93073368743784979
0.15730534077686797
-0.17739234309305676
-0.76701913598869886
-1.19642874536343502
0.64810900308307362
-0.99852847662724842
-0.44506012455288346
0.29020332660941955
-0.86912646327020349
-1.35578440486121288
1.39733476503572818
-0.41298473374071659
0.90179922268352330
-1.05535660570943324
-0.97455770776888639
-0.66438658845960774
-0.93549342746926001
-0.41535609552907843
0.17784369355780327
0.08140546658801175
1.33882056448457321
0.21899881056681184
-0.97073173841298377
0.34793471318772939
-0.58450474356227700
1.21738659132111104
-0.38075374740598561
0.68277905646958925
-0.62880959376124546
0.76708956380515392
-0.35653308321763522
0.89236639007938945
0.43943410998263127
1.32818558664222852
-0.30069644356444747
-1.12612329318906479
0.27104017726459123
0.94752609937874144
-0.50992377536375955
1.14255452120746814
-0.97963512449860002
-0.03141719871552302
1.15399517895113513
-0.37369413783364952
0.85035877695260009
0.54766010612376259
0.73413583844981101
-0.97965809345948907
1.22919875596955896
0.77525402936410381
0.56115592909836698
0.33926986245372370
-0.33974089673174579
0.23975465064443929
-1.45367267010134760
-0.43301256317722481
-1.13047554512233628
-0.19605095621006330
0.11695144710646034
0.59957688939719311
0.34940472689566204
-0.37241067939491623
-0.82895157228425476
0.33339966087860740
-0.78534625665158120
1.06203444652382584
0.66405506604013376
0.66974380788628751
0.33082216353730665
0.77321344828200689
0.62948827518828487
-1.01867483672618997
-0.54583284611125604
1.17366162004583008
0.20915695047269758
0.59148595362582712
0.39960623132091239
0.80348316073308601
1.32440590671576541
0.94035234433022119
0.59891180985628245
0.29115933078935280
-0.83935823496388817
-0.10737807686547858
0.05248717755039672
-1.45436478872549269
0.86652292778244777
0.21170564155261584
0.31277275991965375
0.32604728385783871
-1.13704703613963676
-1.03211906213297544
-1.43698596648218269
1.17857385450221486
0.56593263964204366
-0.12762355798010336
0.00501083154024658
-0.66665424741084711
