[2-5-10-3]

-1.95794549485378955
4.50884083269709546
3.47985777992273926
3.78782692918031527
-2.06908767939852911
-0.64885105848068469
4.50950693958722049
-1.46345307685237391
3.72929617136265312
4.75518208500721951

2.42448643498501060
1.03237627189378922
-0.69885376387853126
-6.58427396567739986
-1.51469224425602644
1.72115064161274955
-4.19932078478452731
-1.64030709393300445
-5.53404151422700341
-3.68676049886642687
2.01994734782307095
2.12824619174244978
2.88535254463587965
-2.16930816946442029
2.82048960556716555
2.10612882811956403
-0.13823247582785581
-2.05687898003269343
2.97086527286115620
-1.15704813642308157
2.06747897246433121
1.54988846142353243
-3.32627297287934809
2.12918548741223113
-2.80841472879434262
1.69367598434239253
0.40041620367621233
2.56431370572700335
-2.61970790252188079
1.08456670910209607
2.04490428677260416
2.26482683368505944
1.94565282243085469
-0.86225040773153949
1.56032260636022535
1.75768769736371766
-0.20641389562334647
-1.66143711252931858
2.52221000858042954
-0.17416130392326906
2.03889711367038728
2.18649901991937590
-2.75762519950242835
3.36484466831472906
-2.15332029187265217
2.11666491419662073
1.58526297209918554
2.84820836932106936
-0.88332263477002604
1.69755684785874683

-3.91396534967261500
-3.39677574279738970
-2.05184447795242697
-2.55280062883355230
-2.61658759766794446
-0.73098116025269699
-1.64432622971710418
3.47684193904446248
4.49159267210165503
6.49903060297202551
2.84447397461173157
-4.10263238166535338
-0.60793976504454150
3.41994917661813647
4.10235732227796923
-2.87834565929348996
-2.45918687284351334
-1.32554001717018122
3.41803359067890167
3.46321862992391738
-1.11772098212355986
2.71138405597733367
0.07732464237460157
-4.12160779071501704
2.04423840446709049
5.44698323398032347
5.66387031065778235
3.47676024268548112
2.31830173554221064
-1.85239979991882486

